<?xml version="1.0"?>
<opencv_storage>
<my_svm type_id="opencv-ml-svm">
  <svm_type>C_SVC</svm_type>
  <kernel><type>POLY</type>
    <degree>3.4999999999999998e-001</degree>
    <gamma>6.2500000000000005e-007</gamma>
    <coef0>0.</coef0></kernel>
  <C>2.2050000000000000e+002</C>
  <term_criteria><epsilon>2.2204460492503131e-016</epsilon>
    <iterations>100</iterations></term_criteria>
  <var_all>3200</var_all>
  <var_count>3200</var_count>
  <class_count>2</class_count>
  <class_labels type_id="opencv-matrix">
    <rows>1</rows>
    <cols>2</cols>
    <dt>i</dt>
    <data>
      1 2</data></class_labels>
  <sv_total>20</sv_total>
  <support_vectors>
    <_>
      149. 167. 7. 12. 154. 163. 34. 232. 54. 0. 203. 64. 80. 226. 40.
      81. 112. 206. 106. 234. 59. 211. 15. 29. 124. 34. 163. 76. 168.
      67. 160. 128. 196. 239. 23. 133. 82. 11. 38. 236. 188. 160. 202.
      194. 220. 226. 161. 87. 114. 197. 106. 234. 97. 209. 137. 108.
      188. 34. 111. 4. 8. 51. 35. 168. 83. 223. 71. 79. 50. 2. 46. 181.
      32. 8. 106. 229. 121. 39. 160. 85. 118. 231. 45. 238. 225. 153. 5.
      109. 48. 170. 170. 128. 47. 178. 161. 57. 118. 104. 66. 160. 203.
      1. 110. 202. 174. 34. 242. 11. 141. 130. 65. 90. 107. 197. 127.
      199. 76. 95. 219. 240. 181. 160. 143. 44. 33. 123. 163. 130. 108.
      253. 243. 74. 235. 72. 55. 233. 233. 148. 45. 40. 94. 245. 237.
      54. 51. 90. 66. 122. 83. 35. 186. 96. 121. 152. 5. 46. 194. 115.
      199. 163. 84. 37. 132. 47. 137. 109. 69. 138. 175. 183. 171. 9.
      231. 98. 75. 90. 97. 199. 108. 2. 10. 67. 255. 113. 149. 178. 83.
      60. 160. 115. 7. 100. 181. 104. 134. 31. 202. 11. 102. 233. 54.
      162. 194. 146. 83. 225. 153. 88. 121. 236. 106. 206. 121. 214.
      205. 62. 48. 38. 197. 0. 33. 241. 250. 128. 84. 228. 148. 173. 9.
      109. 78. 138. 175. 54. 171. 25. 207. 98. 10. 94. 227. 199. 108. 2.
      12. 67. 219. 115. 149. 246. 83. 28. 32. 115. 2. 4. 28. 228. 90.
      35. 82. 235. 234. 192. 62. 97. 127. 135. 221. 195. 10. 208. 126.
      173. 238. 148. 5. 146. 93. 118. 244. 229. 35. 65. 233. 211. 171.
      208. 99. 186. 248. 94. 237. 61. 85. 214. 251. 95. 180. 13. 42.
      185. 223. 58. 205. 198. 127. 12. 142. 111. 242. 225. 215. 250. 80.
      59. 195. 217. 94. 95. 100. 33. 141. 23. 136. 105. 65. 9. 63. 165.
      163. 152. 198. 228. 74. 94. 49. 230. 110. 24. 24. 195. 255. 48.
      157. 178. 85. 120. 192. 65. 134. 100. 38. 135. 105. 137. 255. 209.
      186. 235. 30. 117. 93. 183. 0. 204. 254. 128. 219. 10. 131. 21.
      22. 58. 110. 215. 14. 21. 139. 255. 149. 15. 220. 214. 21. 101.
      15. 187. 202. 171. 109. 87. 182. 50. 203. 82. 213. 227. 8. 89.
      121. 142. 122. 168. 49. 211. 75. 86. 244. 34. 255. 196. 160. 208.
      163. 160. 90. 50. 24. 32. 41. 205. 80. 3. 171. 61. 130. 41. 175.
      151. 66. 154. 134. 149. 253. 16. 14. 75. 195. 17. 211. 241. 56.
      251. 34. 4. 14. 75. 210. 228. 6. 147. 92. 2. 236. 103. 60. 7. 243.
      18. 44. 162. 16. 65. 105. 143. 74. 129. 98. 223. 201. 239. 188. 2.
      158. 0. 5. 24. 243. 140. 43. 217. 32. 154. 125. 209. 130. 232.
      206. 64. 88. 10. 112. 216. 57. 228. 216. 104. 19. 107. 135. 35.
      30. 189. 60. 13. 139. 252. 31. 15. 88. 136. 209. 237. 70. 37. 90.
      139. 106. 228. 54. 160. 226. 66. 99. 131. 0. 149. 48. 236. 110.
      238. 110. 223. 133. 111. 180. 162. 135. 0. 33. 0. 170. 136. 173.
      224. 9. 171. 221. 253. 194. 200. 86. 113. 225. 28. 211. 208. 89.
      168. 217. 8. 18. 126. 31. 38. 94. 183. 173. 221. 129. 124. 216.
      27. 216. 132. 64. 232. 7. 59. 73. 227. 32. 238. 182. 179. 194. 1.
      224. 243. 9. 217. 233. 78. 106. 128. 42. 203. 91. 117. 157. 162.
      223. 79. 128. 0. 118. 138. 130. 180. 159. 187. 163. 237. 57. 71.
      190. 95. 67. 177. 172. 182. 106. 73. 167. 27. 187. 145. 54. 220.
      130. 243. 205. 18. 90. 195. 144. 68. 165. 219. 86. 49. 151. 181.
      171. 79. 29. 109. 45. 246. 130. 173. 222. 118. 0. 223. 166. 245.
      255. 36. 25. 195. 243. 200. 177. 242. 79. 186. 128. 116. 167. 119.
      87. 224. 146. 155. 207. 45. 164. 207. 174. 51. 194. 27. 132. 226.
      96. 202. 225. 231. 106. 21. 54. 75. 155. 208. 188. 54. 94. 123.
      152. 120. 169. 14. 167. 180. 24. 211. 253. 191. 224. 235. 95. 123.
      61. 92. 194. 120. 222. 173. 153. 10. 130. 60. 183. 126. 89. 215.
      14. 95. 17. 119. 218. 77. 216. 132. 252. 109. 121. 70. 172. 75.
      71. 184. 64. 174. 191. 40. 83. 113. 217. 51. 24. 244. 108. 106.
      72. 99. 233. 44. 115. 201. 101. 52. 99. 251. 214. 35. 116. 111.
      174. 37. 154. 106. 87. 184. 54. 166. 234. 129. 83. 111. 3. 83.
      113. 196. 109. 227. 60. 211. 205. 46. 249. 167. 103. 21. 225. 115.
      230. 66. 192. 185. 22. 159. 91. 201. 48. 200. 190. 49. 195. 40.
      230. 194. 105. 209. 232. 190. 234. 210. 38. 211. 203. 121. 189.
      32. 15. 27. 0. 18. 47. 138. 244. 231. 235. 39. 146. 74. 103. 184.
      48. 164. 239. 137. 83. 101. 8. 16. 58. 204. 101. 106. 120. 242.
      233. 46. 253. 167. 101. 84. 97. 243. 214. 98. 212. 132. 7. 184.
      152. 2. 36. 236. 182. 179. 195. 18. 198. 226. 40. 83. 121. 198.
      106. 51. 56. 199. 203. 22. 188. 34. 207. 92. 128. 56. 176. 0. 198.
      235. 238. 30. 234. 242. 60. 207. 190. 23. 198. 177. 108. 238. 171.
      95. 103. 127. 235. 211. 38. 197. 142. 113. 60. 34. 223. 143. 164.
      245. 175. 214. 36. 177. 27. 88. 217. 205. 39. 105. 254. 169. 241.
      24. 86. 211. 32. 16. 248. 186. 74. 64. 81. 191. 83. 86. 61. 20. 7.
      123. 81. 10. 230. 162. 65. 164. 138. 145. 92. 171. 160. 71. 254.
      161. 250. 18. 208. 226. 92. 64. 249. 166. 106. 140. 2. 247. 73.
      95. 156. 6. 155. 16. 201. 8. 251. 136. 148. 165. 7. 31. 218. 139.
      38. 104. 54. 0. 75. 64. 116. 226. 168. 81. 112. 110. 106. 106.
      114. 211. 139. 31. 52. 34. 37. 64. 24. 2. 162. 160. 80. 108. 134.
      31. 11. 11. 36. 231. 166. 176. 202. 0. 226. 163. 65. 82. 105. 236.
      106. 128. 8. 219. 203. 104. 181. 38. 207. 17. 160. 114. 43. 138.
      65. 55. 188. 101. 164. 46. 103. 190. 104. 175. 122. 76. 215. 49.
      26. 114. 149. 70. 108. 44. 176. 248. 241. 34. 229. 191. 96. 16.
      200. 241. 195. 41. 102. 44. 134. 19. 201. 235. 160. 202. 166. 187.
      235. 1. 192. 242. 35. 222. 233. 110. 234. 144. 20. 195. 203. 112.
      29. 50. 207. 31. 128. 119. 62. 134. 67. 36. 135. 31. 203. 187.
      164. 79. 254. 179. 203. 18. 196. 240. 108. 207. 225. 47. 106. 1.
      55. 91. 159. 81. 60. 34. 95. 26. 144. 88. 161. 142. 116. 47. 150.
      138. 217. 43. 6. 207. 190. 165. 168. 9. 198. 162. 65. 18. 249.
      207. 106. 112. 60. 75. 203. 114. 184. 22. 15. 127. 192. 121. 175.
      2. 121. 119. 43. 101. 48. 95. 83. 49. 96. 236. 254. 109. 243. 21.
      131. 48. 28. 236. 236. 108. 201. 186. 241. 14. 231. 253. 33. 48.
      74. 170. 86. 121. 89. 27. 127. 41. 50. 222. 57. 50. 166. 76. 78.
      228. 255. 86. 130. 112. 38. 53. 252. 12. 147. 152. 167. 29. 194.
      237. 32. 192. 42. 130. 15. 113. 91. 179. 250. 120. 187. 223. 125.
      87. 127. 77. 254. 61. 30. 255. 206. 244. 183. 159. 255. 4. 159.
      139. 177. 215. 251. 253. 54. 215. 106. 132. 175. 119. 201. 112.
      189. 101. 40. 14. 85. 57. 104. 248. 167. 76. 223. 57. 72. 51. 148.
      196. 108. 110. 201. 240. 249. 8. 239. 251. 101. 52. 72. 34. 194.
      35. 117. 174. 197. 6. 154. 43. 70. 234. 18. 162. 169. 216. 67. 96.
      9. 16. 25. 206. 96. 42. 56. 115. 77. 63. 56. 134. 5. 52. 249. 243.
      194. 0. 210. 249. 31. 152. 106. 192. 63. 238. 190. 84. 198. 163.
      44. 246. 38. 85. 231. 119. 235. 193. 99. 75. 186. 253. 152. 34.
      95. 239. 20. 21. 39. 127. 91. 180. 254. 124. 187. 254. 125. 127.
      255. 207. 254. 189. 94. 255. 158. 244. 183. 247. 253. 21. 148.
      203. 179. 198. 219. 255. 51. 219. 198. 196. 239. 119. 198. 236. 6.
      30. 201. 137. 38. 236. 190. 146. 128. 9. 228. 194. 73. 19. 145.
      103. 106. 98. 102. 71. 202. 125. 60. 50. 79. 59. 0. 51. 43. 130.
      45. 243. 76. 127. 248. 159. 70. 252. 55. 186. 228. 236. 227. 227.
      201. 48. 29. 200. 102. 110. 238. 86. 203. 63. 254. 223. 37. 180.
      250. 178. 202. 129. 233. 113. 185. 103. 37. 12. 113. 60. 105. 232.
      103. 76. 254. 57. 8. 51. 148. 68. 124. 110. 129. 244. 243. 9. 199.
      249. 96. 48. 72. 179. 66. 35. 237. 243. 156. 59. 232. 159. 102.
      221. 63. 184. 229. 108. 223. 227. 200. 144. 53. 206. 110. 110.
      107. 210. 203. 27. 254. 215. 101. 252. 154. 242. 138. 145. 128.
      237. 134. 31. 8. 139. 166. 237. 158. 162. 202. 72. 230. 192. 32.
      66. 145. 108. 106. 99. 98. 117. 203. 63. 44. 34. 69. 58. 64. 122.
      131. 140. 214. 122. 214. 147. 123. 235. 186. 194. 191. 135. 242.
      179. 236. 254. 37. 222. 239. 251. 255. 210. 34. 199. 131. 234.
      148. 22. 218. 131. 166. 85. 47. 151. 64. 36. 150. 158. 203. 43.
      38. 238. 190. 163. 200. 9. 196. 226. 41. 218. 241. 103. 234. 4.
      36. 195. 139. 120. 180. 38. 95. 59. 144. 122. 171. 14. 244. 108.
      142. 59. 9. 107. 32. 206. 182. 191. 194. 25. 194. 210. 65. 217.
      217. 204. 234. 18. 46. 215. 203. 50. 157. 162. 213. 59. 128. 113.
      46. 138. 5. 5. 15. 141. 222. 7. 167. 105. 22. 224. 219. 194. 113.
      224. 56. 96. 120. 110. 42. 175. 81. 179. 79. 222. 60. 38. 175. 0.
      189. 122. 176. 144. 208. 172. 134. 183. 74. 42. 100. 234. 54. 50.
      194. 19. 241. 35. 8. 91. 105. 206. 106. 142. 106. 222. 207. 127.
      148. 162. 214. 0. 40. 113. 34. 136. 23. 175. 198. 31. 202. 43. 38.
      252. 118. 243. 66. 231. 65. 224. 147. 200. 119. 110. 106. 95. 149.
      216. 207. 60. 60. 34. 119. 192. 173. 253. 185. 212. 225. 165. 131.
      31. 204. 41. 164. 207. 246. 19. 226. 26. 144. 160. 65. 107. 105.
      206. 106. 152. 58. 127. 223. 115. 61. 32. 214. 28. 209. 120. 243.
      172. 242. 109. 22. 186. 189. 125. 20. 204. 188. 174. 130. 24. 167.
      210. 99. 95. 200. 199. 238. 115. 44. 79. 219. 174. 177. 210. 31.
      59. 16. 92. 63. 14. 1. 173. 143. 151. 196. 15. 101. 255. 118. 243.
      70. 82. 209. 35. 16. 125. 121. 206. 106. 140. 57. 250. 127. 115.
      93. 174. 246. 0. 171. 232. 243. 168. 133. 197. 156. 251. 188. 191.
      118. 252. 214. 27. 101. 16. 245. 227. 234. 97. 209. 106. 42. 74.
      54. 192. 75. 63. 238. 207. 231. 105. 144. 251. 161. 128. 125. 185.
      157. 191. 185. 207. 70. 177. 63. 233. 243. 77. 215. 103. 3. 218.
      233. 231. 110. 20. 25. 90. 219. 56. 253. 247. 119. 80. 200. 50.
      194. 90. 68. 39. 135. 159. 154. 169. 35. 73. 190. 129. 195. 80.
      244. 227. 8. 81. 120. 110. 106. 162. 51. 211. 203. 127. 244. 38.
      171. 72. 136. 3. 163. 128. 8. 172. 150. 25. 125. 253. 160. 71.
      255. 23. 98. 17. 174. 128. 98. 221. 225. 42. 202. 16. 54. 253. 2.
      119. 141. 86. 18. 75. 210. 76. 223. 142. 59. 143. 99. 238. 116.
      146. 207. 117. 213. 64. 255. 198. 121. 235. 182. 228. 126. 238.
      23. 239. 217. 187. 36. 239. 242. 237. 162. 128. 55. 174. 240. 168.
      209. 236. 6. 29. 10. 167. 32. 238. 54. 179. 194. 212. 96. 226. 96.
      67. 97. 108. 106. 204. 36. 223. 147. 51. 148. 38. 223. 0. 8. 113.
      43. 140. 221. 54. 159. 53. 178. 30. 1. 151. 178. 253. 134. 252.
      223. 167. 195. 219. 39. 103. 236. 20. 185. 205. 161. 34. 136. 227.
      117. 192. 168. 128. 139. 121. 3. 157. 99. 158. 244. 179. 238. 247.
      85. 73. 90. 194. 57. 254. 180. 228. 120. 234. 23. 201. 243. 186.
      36. 255. 63. 126. 170. 192. 23. 206. 240. 173. 90. 184. 147. 250.
      139. 237. 21. 199. 175. 91. 133. 24. 190. 215. 96. 255. 231. 251.
      255. 130. 83. 75. 186. 241. 153. 243. 94. 123. 154. 68. 167. 123.
      144. 175. 1. 141. 90. 75. 38. 109. 54. 160. 202. 146. 245. 227. 0.
      196. 120. 238. 106. 232. 120. 223. 199. 95. 188. 36. 143. 48. 48.
      170. 183. 160. 121. 115. 253. 101. 42. 94. 95. 61. 105. 236. 62.
      237. 127. 125. 150. 50. 150. 117. 253. 109. 197. 208. 229. 13.
      230. 255. 101. 177. 110. 166. 78. 123. 54. 163. 198. 215. 205. 15.
      172. 237. 30. 181. 250. 15. 202. 226. 77. 26. 249. 198. 110. 148.
      24. 243. 75. 241. 189. 158. 199. 54. 209. 122. 227. 134. 112. 49.
      159. 101. 168. 110. 85. 23. 32. 186. 174. 8. 215. 55. 65. 27. 129.
      244. 108. 8. 9. 193. 241. 8. 193. 251. 101. 20. 128. 112. 70. 42.
      105. 50. 169. 37. 73. 127. 55. 248. 54. 236. 238. 108. 251. 181.
      203. 54. 29. 222. 254. 28. 137. 83. 251. 50. 223. 229. 37. 184.
      74. 229. 6. 249. 195. 171. 6. 30. 25. 153. 162. 201. 190. 177.
      195. 221. 196. 194. 68. 209. 233. 111. 234. 87. 52. 199. 207. 116.
      188. 48. 11. 122. 8. 7. 139. 4. 246. 106. 144. 154. 57. 233. 82.
      200. 191. 190. 177. 57. 238. 254. 79. 156. 187. 243. 237. 82. 46.
      103. 202. 251. 153. 214. 15. 187. 194. 87. 15. 7. 52. 46. 212. 31.
      154. 43. 70. 138. 118. 163. 106. 216. 67. 97. 1. 152. 25. 238. 98.
      26. 56. 244. 77. 62. 60. 166. 69. 52. 241. 251. 194. 128. 68. 100.
      15. 154. 12. 163. 165. 206. 190. 178. 218. 70. 208. 192. 101. 72.
      249. 108. 106. 151. 67. 247. 203. 88. 180. 34. 223. 12. 152. 91.
      49. 168. 182. 107. 142. 150. 204. 11. 174. 192. 188. 162. 240. 75.
      224. 162. 97. 91. 121. 239. 106. 211. 32. 235. 200. 232. 188. 50.
      207. 25. 129. 112. 59. 136. 40. 215. 93. 79. 122. 137. 101. 255.
      22. 6. 108. 228. 241. 119. 168. 0. 30. 18. 3. 72. 67. 152. 115.
      63. 102. 175. 112. 0. 113. 152. 68. 185. 146. 158. 74. 191. 50.
      146. 58. 119. 61. 15. 90. 247. 45. 238. 166. 192. 119. 123. 167.
      133. 166. 156. 6. 239. 162. 103. 186. 131. 53. 196. 45. 93. 69.
      166. 188. 117. 40. 14. 125. 185. 108. 254. 127. 40. 215. 115. 138.
      123. 151. 68. 108. 46. 208. 240. 235. 13. 206. 251. 101. 20. 72.
      227. 203. 97. 37. 189. 211. 91. 244. 191. 167. 222. 126. 235. 120.
      64. 242. 240. 189. 164. 57. 106. 2. 90. 179. 184. 61. 127. 44.
      158. 7. 2. 219. 91. 99. 173. 188. 229. 233. 103. 212. 106. 103.
      184. 115. 164. 127. 136. 83. 101. 153. 17. 57. 222. 36. 106. 104.
      240. 237. 47. 237. 174. 37. 4. 97. 251. 86. 224. 68. 232. 150. 30.
      137. 175. 4. 200. 190. 179. 193. 24. 228. 242. 72. 90. 129. 110.
      106. 66. 22. 71. 203. 49. 149. 54. 91. 59. 16. 115. 171. 6. 97.
      109. 134. 158. 204. 137. 166. 236. 254. 130. 194. 74. 228. 224.
      33. 219. 120. 238. 106. 66. 96. 107. 211. 232. 52. 38. 222. 24.
      136. 120. 185. 140. 116. 60. 29. 48. 168. 239. 83. 186. 178. 254.
      162. 104. 215. 119. 65. 27. 129. 215. 109. 50. 43. 67. 235. 44.
      217. 227. 101. 180. 128. 97. 6. 115. 116. 232. 131. 161. 75. 45.
      42. 200. 46. 36. 235. 11. 141. 130. 72. 146. 121. 205. 107. 198.
      10. 83. 219. 113. 149. 132. 139. 36. 33. 83. 35. 130. 218. 201.
      124. 254. 37. 128. 95. 165. 173. 18. 199. 51. 255. 95. 40. 81.
      230. 147. 189. 194. 106. 12. 11. 255. 243. 251. 218. 11. 54. 146.
      173. 10. 160. 167. 6. 30. 73. 203. 98. 107. 53. 133. 235. 25. 98.
      227. 0. 16. 120. 238. 106. 130. 8. 219. 195. 103. 87. 166. 19. 25.
      115. 2. 230. 138. 221. 93. 70. 159. 151. 23. 110. 188. 116. 162.
      203. 70. 243. 96. 151. 229. 120. 230. 126. 238. 237. 208. 93. 174.
      190. 110. 231. 0. 47. 254. 120. 12. 194. 167. 154. 24. 152. 137.
      6. 207. 190. 23. 136. 153. 196. 226. 104. 80. 233. 127. 106. 16.
      50. 79. 195. 114. 185. 52. 31. 123. 128. 81. 167. 10. 89. 176. 57.
      98. 48. 205. 83. 158. 107. 121. 124. 12. 191. 151. 64. 48. 148.
      223. 124. 90. 139. 122. 243. 33. 219. 253. 48. 124. 74. 131. 7.
      123. 180. 39. 232. 103. 212. 47. 71. 248. 80. 166. 252. 26. 83.
      97. 27. 17. 89. 222. 5. 234. 120. 246. 121. 46. 127. 143. 229. 52.
      97. 251. 214. 162. 212. 129. 158. 191. 158. 75. 166. 236. 86. 177.
      210. 58. 247. 224. 40. 66. 121. 223. 238. 65. 120. 251. 203. 179.
      188. 231. 111. 21. 177. 122. 181. 0. 133. 173. 135. 30. 200. 203.
      38. 236. 182. 144. 201. 72. 244. 242. 40. 87. 88. 110. 106. 66.
      65. 75. 219. 61. 61. 34. 71. 8. 144. 114. 163. 168. 47. 182. 247.
      223. 253. 255. 191. 248. 95. 255. 253. 102. 232. 252. 223. 228.
      255. 255. 255. 181. 175. 243. 255. 255. 63. 127. 239. 182. 223.
      127. 119. 247. 132. 40. 135. 156. 205. 67. 166. 73. 150. 146. 195.
      2. 192. 240. 33. 206. 88. 108. 42. 194. 65. 211. 11. 136. 20. 34.
      207. 45. 152. 105. 57. 128. 56. 1. 67. 204. 29. 211. 195. 120. 70.
      32. 253. 98. 115. 217. 184. 228. 88. 184. 30. 106. 73. 163. 109.
      157. 16. 236. 163. 60. 119. 138. 112. 160. 213. 79. 204. 39. 154.
      22. 238. 184. 112. 166. 194. 199. 67. 106. 159. 211. 117. 228.
      108. 239. 236. 213. 205. 46. 190. 235. 239. 148. 45. 247. 251. 4.
      73. 188. 21. 85. 137. 220. 84. 183. 237. 91. 166. 8. 158. 51. 0.
      255. 129. 86. 104. 8. 105. 104. 243. 97. 175. 250. 85. 18. 74. 80.
      202. 62. 220. 38. 220. 39. 34. 42. 118. 184. 122. 166. 255. 237.
      215. 97. 139. 91. 55. 197. 108. 38. 172. 244. 205. 14. 206. 227.
      101. 21. 236. 243. 11. 1.</_>
    <_>
      70. 186. 211. 86. 224. 46. 111. 179. 59. 171. 102. 88. 112. 231.
      196. 126. 53. 118. 32. 8. 49. 88. 168. 98. 31. 190. 85. 36. 128.
      224. 198. 49. 103. 108. 229. 71. 253. 60. 79. 30. 107. 230. 172.
      12. 242. 51. 215. 55. 129. 100. 120. 62. 241. 71. 249. 8. 47. 26.
      197. 48. 138. 114. 82. 244. 180. 196. 253. 126. 220. 103. 71. 254.
      82. 190. 181. 26. 83. 117. 73. 59. 89. 218. 5. 122. 120. 102. 123.
      62. 235. 143. 229. 61. 241. 249. 212. 162. 44. 166. 165. 183. 36.
      75. 77. 57. 17. 174. 179. 233. 231. 101. 152. 31. 25. 228. 109.
      46. 104. 252. 73. 12. 205. 242. 229. 144. 226. 252. 86. 113. 245.
      234. 208. 39. 154. 18. 154. 200. 114. 178. 225. 242. 197. 242.
      197. 251. 87. 93. 32. 243. 173. 86. 207. 2. 40. 238. 207. 110.
      173. 115. 43. 132. 86. 175. 190. 24. 185. 28. 82. 170. 235. 29.
      164. 5. 70. 234. 111. 90. 161. 66. 108. 84. 118. 105. 170. 113.
      187. 186. 69. 111. 128. 96. 231. 70. 100. 143. 222. 182. 246. 11.
      166. 170. 218. 178. 58. 106. 101. 233. 109. 3. 251. 111. 38. 115.
      100. 240. 10. 40. 60. 134. 101. 52. 197. 123. 89. 137. 147. 17.
      183. 173. 18. 166. 185. 79. 174. 69. 194. 7. 124. 250. 38. 66.
      182. 71. 121. 197. 6. 217. 151. 79. 209. 170. 26. 6. 45. 0. 161.
      90. 118. 55. 253. 70. 234. 46. 92. 61. 171. 182. 47. 76. 110. 39.
      77. 255. 167. 214. 109. 42. 161. 81. 185. 104. 187. 250. 69. 50.
      160. 243. 134. 45. 247. 188. 216. 85. 210. 18. 190. 233. 58. 162.
      97. 250. 81. 242. 196. 120. 119. 221. 48. 146. 55. 86. 204. 74.
      60. 174. 175. 174. 173. 225. 171. 133. 103. 171. 133. 213. 204.
      62. 78. 178. 83. 227. 11. 220. 208. 39. 213. 254. 85. 230. 122.
      30. 137. 90. 255. 106. 15. 62. 197. 52. 138. 233. 80. 116. 245.
      164. 216. 68. 218. 58. 82. 140. 115. 179. 167. 24. 82. 50. 207.
      250. 115. 196. 108. 60. 175. 103. 221. 66. 30. 189. 21. 127. 169.
      224. 106. 4. 117. 53. 215. 84. 211. 63. 118. 114. 251. 162. 107.
      74. 78. 241. 36. 183. 183. 244. 226. 42. 49. 240. 152. 10. 63.
      206. 69. 34. 235. 123. 74. 181. 137. 244. 173. 87. 141. 127. 253.
      159. 126. 243. 5. 16. 217. 60. 223. 171. 133. 70. 120. 47. 229.
      100. 127. 147. 231. 91. 221. 52. 206. 244. 219. 252. 119. 175.
      216. 196. 202. 16. 28. 175. 59. 178. 168. 234. 80. 242. 196. 115.
      119. 223. 58. 130. 85. 74. 207. 97. 62. 170. 197. 62. 61. 240.
      170. 13. 101. 245. 139. 69. 20. 30. 238. 58. 98. 226. 234. 68.
      241. 98. 84. 242. 216. 108. 64. 238. 237. 146. 245. 14. 45. 172.
      135. 52. 8. 114. 82. 244. 231. 123. 217. 86. 234. 16. 62. 140. 50.
      162. 96. 234. 113. 242. 197. 122. 119. 221. 48. 208. 5. 90. 207.
      106. 30. 174. 255. 174. 173. 240. 42. 141. 109. 212. 150. 86. 237.
      31. 86. 191. 219. 170. 34. 72. 74. 240. 69. 191. 157. 244. 224.
      42. 253. 122. 216. 138. 59. 222. 85. 54. 202. 252. 202. 5. 72.
      182. 117. 81. 48. 142. 97. 55. 41. 29. 127. 248. 143. 7. 128. 23.
      6. 22. 196. 40. 48. 216. 225. 13. 101. 225. 96. 192. 226. 128.
      198. 225. 118. 180. 149. 100. 217. 102. 9. 158. 163. 180. 128. 8.
      22. 183. 64. 95. 5. 214. 233. 176. 43. 67. 251. 24. 155. 208. 85.
      62. 130. 112. 6. 122. 227. 7. 93. 196. 90. 34. 14. 42. 128. 160.
      106. 232. 113. 102. 133. 115. 86. 245. 48. 226. 173. 90. 205. 12.
      60. 170. 237. 180. 44. 226. 8. 28. 17. 43. 46. 44. 108. 142. 161.
      96. 232. 140. 115. 5. 38. 200. 50. 2. 160. 37. 111. 69. 196. 185.
      130. 8. 208. 41. 43. 8. 65. 38. 119. 203. 85. 41. 177. 165. 164.
      108. 75. 144. 106. 248. 10. 72. 215. 56. 81. 170. 160. 101. 124.
      95. 145. 97. 253. 40. 153. 46. 109. 112. 132. 115. 19. 101. 36.
      119. 217. 166. 226. 43. 87. 220. 34. 166. 41. 237. 215. 97. 75.
      26. 23. 221. 70. 98. 64. 114. 201. 10. 244. 133. 37. 52. 96. 251.
      6. 65. 32. 52. 121. 80. 96. 111. 3. 218. 122. 46. 44. 40. 50. 23.
      141. 57. 23. 154. 196. 42. 33. 246. 240. 62. 71. 143. 49. 48. 193.
      209. 70. 248. 124. 51. 220. 37. 186. 42. 19. 152. 34. 189. 167.
      237. 87. 35. 203. 90. 54. 212. 109. 112. 24. 80. 201. 0. 220. 161.
      33. 181. 232. 243. 6. 19. 197. 230. 138. 16. 137. 216. 68. 143.
      251. 151. 164. 28. 143. 226. 102. 222. 145. 194. 232. 156. 126.
      69. 174. 211. 187. 215. 71. 127. 130. 116. 239. 70. 25. 178. 114.
      41. 71. 141. 241. 246. 123. 45. 124. 63. 14. 153. 22. 20. 183. 15.
      70. 5. 210. 190. 146. 119. 95. 108. 16. 110. 107. 4. 227. 235. 45.
      52. 177. 65. 245. 111. 99. 152. 115. 107. 109. 88. 210. 113. 89.
      60. 153. 72. 18. 58. 155. 50. 248. 18. 79. 156. 5. 100. 218. 123.
      194. 160. 29. 180. 254. 45. 178. 42. 179. 250. 118. 67. 123. 116.
      215. 120. 138. 32. 59. 93. 22. 161. 180. 240. 29. 29. 196. 174.
      43. 4. 237. 96. 35. 131. 185. 59. 104. 15. 215. 27. 246. 85. 83.
      236. 117. 239. 35. 8. 151. 156. 120. 172. 134. 21. 140. 250. 197.
      154. 54. 77. 129. 163. 239. 156. 218. 159. 224. 43. 235. 86. 248.
      200. 111. 198. 186. 143. 32. 153. 33. 230. 197. 26. 128. 126. 97.
      80. 50. 75. 170. 35. 127. 161. 252. 169. 128. 242. 214. 232. 227.
      191. 209. 86. 248. 156. 78. 19. 187. 162. 41. 120. 40. 231. 196.
      180. 151. 254. 224. 152. 167. 94. 248. 234. 62. 156. 133. 58. 138.
      226. 194. 29. 124. 88. 139. 166. 153. 204. 3. 4. 38. 196. 170. 13.
      103. 134. 67. 210. 232. 230. 232. 82. 93. 139. 241. 42. 185. 229.
      7. 19. 168. 30. 44. 94. 85. 111. 76. 197. 150. 42. 70. 176. 32.
      162. 11. 104. 211. 51. 193. 51. 51. 100. 124. 122. 121. 208. 205.
      14. 236. 142. 229. 148. 172. 243. 82. 33. 29. 162. 182. 49. 7. 14.
      177. 200. 238. 158. 66. 5. 223. 200. 90. 11. 161. 77. 105. 39.
      196. 245. 147. 1. 201. 235. 67. 68. 65. 36. 115. 195. 157. 116.
      51. 45. 135. 47. 183. 250. 116. 6. 114. 103. 207. 248. 1. 13. 63.
      77. 6. 39. 224. 244. 21. 78. 224. 234. 10. 6. 109. 117. 35. 235.
      73. 169. 222. 86. 203. 24. 52. 39. 234. 179. 170. 24. 56. 58. 68.
      242. 227. 247. 232. 128. 84. 91. 197. 98. 30. 175. 86. 19. 8. 64.
      234. 14. 193. 205. 222. 86. 64. 152. 100. 39. 252. 130. 226. 208.
      243. 242. 132. 115. 194. 246. 106. 194. 101. 220. 199. 107. 46.
      186. 84. 0. 0. 224. 200. 12. 185. 121. 88. 47. 19. 251. 150. 204.
      118. 224. 248. 40. 179. 24. 3. 32. 26. 253. 84. 195. 141. 242. 93.
      63. 230. 207. 49. 51. 109. 82. 11. 159. 192. 182. 137. 19. 17.
      252. 33. 27. 126. 255. 7. 84. 162. 98. 202. 222. 129. 14. 104. 24.
      167. 84. 251. 83. 141. 20. 19. 110. 136. 64. 69. 124. 120. 180.
      149. 97. 169. 111. 85. 175. 171. 115. 169. 24. 94. 119. 8. 190.
      131. 87. 236. 42. 11. 67. 123. 17. 201. 215. 85. 86. 66. 66. 135.
      51. 241. 228. 30. 117. 2. 43. 118. 236. 121. 50. 226. 24. 247.
      114. 8. 89. 179. 197. 110. 98. 44. 247. 137. 31. 212. 195. 81. 23.
      104. 49. 11. 2. 169. 233. 91. 101. 84. 14. 111. 116. 113. 224.
      106. 76. 19. 19. 144. 48. 28. 236. 20. 238. 201. 186. 244. 14.
      119. 173. 161. 64. 105. 162. 98. 176. 241. 52. 222. 68. 70. 30.
      182. 97. 122. 162. 99. 90. 82. 184. 132. 51. 186. 253. 98. 32. 37.
      246. 185. 78. 31. 174. 69. 2. 105. 41. 75. 132. 197. 236. 222. 86.
      202. 144. 118. 128. 243. 146. 166. 10. 112. 242. 207. 123. 99.
      246. 104. 210. 110. 69. 222. 99. 62. 171. 213. 75. 168. 241. 104.
      14. 233. 51. 48. 48. 229. 141. 81. 17. 123. 53. 34. 29. 174. 153.
      74. 30. 140. 134. 101. 28. 194. 124. 145. 193. 205. 184. 16. 114.
      66. 4. 67. 75. 108. 226. 225. 39. 100. 90. 232. 136. 105. 204.
      114. 137. 195. 13. 156. 18. 152. 204. 101. 111. 140. 240. 236. 0.
      71. 121. 96. 149. 71. 175. 86. 253. 116. 4. 172. 164. 141. 111.
      65. 10. 194. 187. 143. 27. 211. 57. 89. 74. 217. 196. 108. 47. 24.
      99. 203. 2. 209. 239. 209. 61. 224. 121. 16. 2. 244. 246. 29. 178.
      238. 109. 87. 248. 18. 54. 9. 127. 86. 247. 73. 25. 21. 82. 125.
      99. 50. 71. 203. 51. 209. 135. 253. 252. 164. 251. 150. 99. 115.
      187. 208. 84. 218. 146. 56. 142. 59. 177. 96. 234. 8. 178. 196.
      182. 103. 255. 224. 208. 55. 90. 239. 243. 62. 204. 95. 110. 137.
      96. 43. 141. 113. 169. 252. 87. 90. 146. 112. 165. 243. 181. 166.
      28. 66. 170. 198. 114. 99. 238. 104. 220. 222. 122. 238. 96. 94.
      43. 21. 111. 97. 160. 234. 70. 213. 104. 222. 84. 138. 18. 84.
      167. 251. 182. 166. 10. 98. 242. 71. 122. 227. 228. 104. 78. 76.
      103. 255. 106. 58. 42. 85. 23. 169. 240. 224. 14. 102. 227. 193.
      78. 216. 4. 143. 140. 2. 29. 232. 200. 161. 230. 204. 214. 93.
      223. 97. 218. 90. 66. 234. 115. 45. 188. 143. 252. 129. 147. 214.
      180. 8. 167. 113. 67. 226. 56. 169. 115. 56. 37. 111. 224. 169.
      39. 204. 180. 54. 31. 194. 40. 144. 184. 173. 71. 7. 221. 2. 96.
      199. 195. 135. 229. 21. 103. 158. 37. 144. 98. 190. 209. 100. 201.
      251. 226. 83. 106. 43. 32. 62. 221. 76. 227. 173. 177. 13. 110.
      240. 165. 47. 133. 233. 243. 171. 129. 224. 244. 57. 86. 41. 93.
      70. 181. 235. 190. 166. 88. 114. 180. 204. 179. 137. 214. 236. 66.
      105. 127. 250. 35. 171. 219. 117. 55. 64. 56. 198. 126. 102. 126.
      193. 199. 216. 44. 78. 190. 26. 162. 74. 204. 113. 38. 213. 240.
      85. 254. 113. 220. 137. 90. 217. 42. 61. 36. 141. 188. 140. 243.
      18. 56. 100. 85. 253. 101. 174. 75. 85. 188. 196. 250. 58. 104.
      87. 117. 129. 123. 3. 244. 108. 98. 64. 240. 111. 12. 116. 138.
      101. 21. 100. 251. 196. 35. 12. 107. 42. 52. 101. 141. 167. 240.
      232. 12. 116. 13. 190. 201. 115. 0. 188. 105. 71. 79. 128. 113.
      130. 41. 117. 73. 39. 40. 64. 61. 67. 227. 72. 111. 33. 39. 117.
      14. 239. 49. 120. 76. 115. 13. 255. 77. 19. 0. 188. 108. 65. 111.
      224. 180. 241. 14. 229. 125. 34. 0. 64. 62. 87. 240. 102. 199.
      133. 247. 168. 14. 75. 184. 19. 189. 143. 201. 195. 103. 200. 87.
      85. 212. 109. 174. 56. 82. 203. 14. 205. 182. 237. 244. 34. 171.
      148. 96. 21. 241. 250. 122. 218. 208. 176. 204. 114. 81. 248. 34.
      57. 216. 238. 48. 186. 27. 2. 209. 23. 226. 174. 113. 104. 169.
      38. 75. 253. 18. 235. 151. 21. 2. 20. 49. 26. 31. 216. 50. 229.
      176. 178. 197. 199. 8. 18. 43. 46. 165. 108. 33. 172. 244. 69. 28.
      132. 210. 65. 83. 125. 169. 9. 5. 99. 187. 204. 215. 232. 48. 8.
      166. 19. 179. 130. 250. 241. 54. 196. 251. 71. 247. 122. 128. 29.
      90. 207. 97. 14. 42. 253. 248. 140. 233. 136. 28. 224. 112. 141.
      101. 32. 46. 79. 28. 33. 174. 38. 77. 243. 39. 193. 91. 4. 196.
      125. 110. 41. 85. 241. 8. 199. 187. 229. 176. 2. 241. 86. 112.
      106. 236. 133. 215. 9. 215. 13. 39. 130. 183. 142. 24. 184. 39.
      64. 135. 73. 54. 249. 152. 120. 74. 243. 240. 237. 147. 223. 113.
      130. 4. 148. 120. 69. 13. 255. 117. 166. 107. 71. 177. 85. 234.
      43. 8. 214. 113. 81. 122. 49. 100. 126. 46. 89. 240. 249. 10. 93.
      174. 101. 20. 232. 123. 80. 98. 49. 118. 44. 43. 92. 15. 179. 88.
      86. 238. 241. 79. 86. 152. 19. 9. 249. 13. 82. 39. 164. 246. 221.
      30. 116. 15. 59. 52. 89. 11. 115. 203. 252. 92. 62. 116. 169. 118.
      84. 183. 225. 186. 166. 17. 83. 63. 1. 251. 193. 244. 237. 32.
      125. 197. 211. 12. 227. 235. 245. 17. 170. 240. 232. 18. 98. 13.
      199. 86. 73. 184. 38. 38. 185. 130. 106. 200. 96. 230. 36. 214.
      160. 246. 232. 0. 33. 91. 130. 234. 55. 182. 213. 27. 2. 113. 86.
      44. 87. 164. 156. 88. 139. 52. 85. 207. 251. 159. 168. 24. 70.
      242. 111. 123. 161. 199. 104. 48. 54. 67. 186. 81. 91. 58. 85.
      127. 176. 112. 232. 70. 21. 9. 156. 37. 172. 22. 214. 136. 198.
      186. 179. 0. 210. 120. 119. 42. 217. 69. 108. 115. 204. 97. 79.
      64. 200. 26. 103. 29. 217. 123. 105. 6. 122. 182. 53. 103. 91. 79.
      146. 121. 43. 175. 177. 107. 79. 125. 72. 146. 181. 149. 213. 33.
      154. 102. 249. 157. 159. 199. 13. 243. 99. 14. 7. 115. 212. 149.
      153. 178. 10. 109. 19. 8. 150. 247. 139. 31. 247. 247. 106. 67.
      149. 87. 41. 2. 45. 65. 219. 51. 217. 133. 93. 124. 184. 75. 5.
      90. 165. 112. 145. 83. 245. 255. 96. 196. 123. 249. 160. 88. 26.
      152. 92. 191. 137. 238. 80. 88. 191. 244. 248. 226. 15. 220. 21.
      118. 202. 28. 202. 134. 193. 156. 159. 245. 32. 142. 45. 55. 188.
      155. 66. 84. 180. 51. 0. 99. 134. 119. 60. 8. 113. 220. 81. 111.
      197. 166. 126. 128. 8. 64. 129. 41. 111. 80. 133. 215. 141. 54.
      76. 152. 131. 243. 135. 92. 200. 103. 89. 223. 69. 198. 249. 190.
      185. 67. 251. 224. 143. 126. 221. 60. 138. 247. 208. 116. 147.
      111. 108. 29. 142. 149. 189. 110. 206. 252. 148. 143. 33. 204.
      215. 3. 174. 233. 123. 231. 134. 111. 239. 121. 126. 9. 175. 189.
      85. 157. 27. 205. 196. 130. 149. 145. 164. 42. 172. 15. 174. 179.
      154. 80. 213. 35. 216. 75. 99. 71. 106. 153. 48. 216. 195. 194.
      140. 178. 254. 196. 140. 112. 241. 0. 118. 169. 170. 188. 205. 80.
      210. 202. 227. 21. 160. 10. 34. 248. 118. 122. 169. 198. 104. 194.
      30. 107. 174. 225. 211. 239. 199. 127. 161. 57. 255. 6. 97. 248.
      220. 86. 232. 184. 112. 134. 235. 178. 162. 104. 50. 50. 197. 122.
      35. 246. 104. 144. 133. 90. 237. 96. 30. 175. 117. 107. 201. 241.
      74. 12. 232. 184. 248. 118. 233. 220. 81. 155. 251. 157. 180. 56.
      174. 219. 70. 26. 131. 247. 236. 16. 30. 111. 234. 99. 219. 251.
      117. 123. 194. 1. 199. 3. 116. 224. 190. 56. 141. 248. 84. 143.
      203. 23. 172. 25. 162. 248. 110. 122. 201. 194. 232. 16. 30. 107.
      226. 145. 219. 247. 81. 127. 192. 56. 252. 6. 103. 165. 193. 85.
      200. 54. 111. 190. 82. 226. 106. 220. 209. 166. 213. 126. 93. 206.
      50. 174. 145. 82. 253. 66. 12. 62. 213. 44. 137. 243. 210. 180.
      101. 74. 172. 173. 8. 14. 77. 156. 134. 182. 134. 1. 245. 162. 83.
      122. 196. 68. 121. 207. 140. 69. 255. 0. 197. 231. 237. 21. 176.
      243. 84. 72. 39. 36. 110. 65. 52. 219. 75. 41. 105. 5. 255. 136.
      227. 72. 158. 52. 24. 132. 92. 46. 44. 164. 101. 15. 134. 126.
      128. 85. 101. 136. 86. 228. 41. 42. 132. 23. 125. 191. 234. 48.
      91. 168. 241. 76. 202. 40. 214. 164. 76. 44. 70. 13. 133. 114.
      205. 222. 4. 30. 129. 176. 79. 238. 90. 133. 245. 184. 220. 88.
      203. 49. 16. 200. 106. 177. 160. 58. 88. 218. 79. 251. 199. 213.
      248. 242. 55. 71. 223. 112. 31. 9. 197. 127. 185. 113. 170. 6. 69.
      190. 149. 247. 176. 140. 47. 191. 190. 155. 2. 84. 245. 243. 201.
      107. 135. 127. 56. 24. 243. 92. 219. 113. 172. 158. 127. 64. 136.
      240. 129. 41. 100. 32. 185. 62. 141. 109. 85. 141. 131. 31. 173.
      25. 246. 213. 74. 26. 129. 138. 105. 20. 30. 98. 235. 17. 195.
      253. 20. 59. 208. 89. 214. 98. 115. 92. 189. 70. 27. 86. 82. 40.
      99. 232. 174. 8. 114. 55. 69. 118. 132. 244. 252. 192. 13. 203.
      241. 60. 179. 250. 65. 19. 42. 162. 6. 62. 52. 38. 235. 118. 226.
      104. 175. 75. 48. 142. 123. 185. 119. 230. 65. 58. 178. 127. 101.
      19. 80. 219. 162. 34. 89. 164. 127. 169. 225. 96. 247. 227. 96.
      40. 233. 181. 72. 233. 177. 38. 154. 182. 160. 191. 131. 172. 70.
      26. 137. 231. 99. 1. 60. 123. 212. 2. 85. 6. 221. 57. 197. 104.
      86. 218. 246. 159. 69. 198. 154. 2. 79. 184. 1. 160. 139. 234. 73.
      119. 137. 247. 86. 212. 125. 234. 105. 195. 109. 238. 186. 250.
      197. 148. 39. 243. 4. 48. 244. 101. 45. 228. 140. 103. 71. 233.
      64. 182. 169. 11. 83. 105. 89. 19. 89. 196. 77. 234. 104. 103.
      217. 26. 249. 195. 229. 61. 113. 123. 214. 98. 2. 240. 183. 82. 9.
      220. 177. 71. 239. 21. 40. 0. 172. 214. 108. 166. 135. 51. 202.
      16. 3. 169. 50. 193. 13. 60. 26. 74. 194. 6. 167. 236. 68. 201.
      133. 215. 169. 46. 79. 189. 59. 162. 3. 76. 222. 39. 81. 222. 21.
      70. 105. 46. 1. 81. 155. 234. 157. 182. 213. 20. 138. 242. 128.
      48. 73. 220. 151. 77. 3. 14. 45. 51. 174. 106. 207. 68. 252. 55.
      0. 246. 5. 116. 124. 12. 193. 205. 179. 79. 165. 174. 107. 144.
      10. 226. 129. 49. 38. 190. 197. 150. 206. 3. 135. 232. 19. 246.
      176. 239. 96. 104. 239. 19. 95. 202. 2. 167. 237. 118. 78. 126.
      60. 6. 197. 62. 253. 250. 242. 213.</_>
    <_>
      2. 132. 153. 187. 156. 229. 177. 79. 30. 17. 73. 19. 180. 254. 40.
      72. 217. 27. 19. 145. 50. 26. 90. 87. 205. 134. 154. 104. 144. 72.
      181. 170. 138. 150. 39. 155. 147. 242. 57. 55. 60. 79. 78. 183.
      108. 246. 174. 229. 119. 59. 179. 133. 183. 156. 39. 247. 12. 39.
      250. 195. 182. 68. 173. 127. 165. 140. 252. 85. 237. 63. 212. 183.
      219. 250. 52. 28. 130. 56. 215. 175. 137. 102. 114. 29. 245. 124.
      255. 186. 46. 26. 85. 54. 222. 253. 216. 77. 41. 157. 115. 88.
      245. 205. 235. 119. 127. 73. 126. 64. 186. 149. 180. 244. 196. 42.
      22. 12. 147. 184. 48. 247. 39. 188. 48. 72. 66. 136. 194. 249. 34.
      137. 33. 234. 221. 197. 174. 237. 6. 1. 217. 66. 180. 221. 56. 64.
      216. 59. 19. 209. 90. 170. 90. 253. 173. 20. 142. 106. 17. 10.
      181. 170. 104. 173. 61. 112. 173. 111. 85. 55. 113. 59. 164. 24.
      151. 51. 0. 49. 129. 150. 92. 8. 56. 107. 241. 29. 195. 251. 81.
      112. 66. 200. 198. 34. 11. 223. 74. 190. 150. 147. 190. 246. 150.
      69. 218. 231. 109. 234. 58. 192. 127. 235. 155. 199. 254. 137. 12.
      255. 58. 103. 174. 193. 61. 158. 184. 92. 67. 26. 134. 149. 2. 46.
      184. 51. 172. 245. 130. 229. 173. 38. 22. 206. 38. 37. 249. 133.
      149. 217. 149. 196. 156. 50. 218. 194. 140. 132. 45. 93. 16. 205.
      2. 190. 212. 195. 174. 231. 158. 1. 216. 2. 244. 248. 48. 64. 248.
      251. 19. 193. 74. 187. 8. 255. 185. 148. 142. 72. 21. 90. 177.
      138. 2. 133. 41. 187. 212. 229. 169. 79. 22. 17. 73. 18. 180. 255.
      56. 96. 217. 27. 19. 153. 50. 152. 122. 23. 77. 6. 154. 72. 144.
      72. 181. 234. 32. 205. 63. 233. 52. 135. 245. 117. 140. 0. 120.
      67. 183. 25. 48. 65. 200. 51. 19. 97. 66. 184. 0. 29. 225. 128.
      138. 0. 21. 10. 229. 170. 33. 188. 107. 95. 244. 255. 251. 246.
      94. 107. 124. 94. 176. 188. 182. 32. 221. 106. 22. 13. 183. 190.
      116. 255. 47. 31. 52. 96. 221. 200. 218. 253. 39. 189. 209. 69.
      247. 95. 166. 207. 127. 224. 122. 104. 202. 48. 197. 180. 191. 94.
      98. 120. 161. 248. 253. 206. 45. 158. 7. 102. 203. 42. 67. 173.
      217. 33. 156. 229. 160. 14. 125. 55. 56. 170. 166. 24. 223. 51.
      64. 91. 134. 214. 108. 72. 56. 216. 193. 42. 238. 223. 117. 17.
      98. 160. 203. 1. 39. 205. 43. 202. 124. 133. 238. 248. 222. 8. 89.
      66. 113. 201. 61. 96. 220. 234. 23. 239. 195. 171. 14. 255. 117.
      12. 171. 168. 29. 139. 112. 169. 16. 201. 27. 170. 20. 197. 71.
      228. 150. 0. 200. 3. 183. 215. 32. 64. 200. 123. 27. 67. 75. 139.
      90. 63. 225. 133. 138. 56. 48. 26. 53. 106. 3. 205. 42. 184. 29.
      197. 140. 239. 20. 69. 200. 3. 176. 142. 50. 64. 200. 43. 27. 197.
      94. 138. 82. 253. 169. 117. 158. 72. 28. 12. 176. 218. 166. 174.
      174. 26. 221. 245. 148. 239. 223. 159. 228. 27. 32. 232. 126. 9.
      201. 107. 227. 17. 54. 111. 202. 243. 27. 22. 221. 123. 209. 76.
      222. 206. 64. 60. 185. 116. 16. 236. 81. 19. 120. 193. 174. 8.
      151. 183. 64. 50. 161. 188. 124. 24. 19. 104. 176. 14. 203. 255.
      49. 56. 192. 64. 71. 115. 2. 159. 42. 139. 183. 211. 186. 103. 14.
      77. 92. 167. 172. 142. 182. 64. 238. 59. 147. 129. 214. 152. 36.
      255. 46. 52. 154. 195. 21. 14. 189. 223. 3. 157. 27. 188. 180.
      132. 172. 103. 140. 1. 90. 66. 188. 186. 32. 96. 230. 43. 19. 133.
      83. 152. 16. 255. 36. 36. 186. 192. 28. 8. 161. 155. 145. 133.
      107. 237. 52. 198. 238. 55. 20. 2. 218. 82. 241. 63. 176. 96. 120.
      178. 63. 169. 249. 156. 97. 207. 225. 174. 170. 128. 53. 200. 240.
      40. 49. 221. 41. 239. 156. 133. 206. 252. 84. 72. 220. 70. 115.
      248. 60. 96. 216. 106. 19. 235. 239. 170. 122. 191. 107. 141. 174.
      24. 29. 26. 248. 184. 212. 22. 253. 245. 162. 106. 29. 27. 56.
      191. 151. 240. 215. 55. 137. 91. 39. 85. 125. 168. 57. 196. 241.
      2. 193. 163. 122. 148. 164. 241. 133. 115. 105. 181. 177. 97. 213.
      221. 67. 63. 115. 233. 108. 8. 186. 53. 64. 180. 145. 222. 64. 24.
      27. 58. 241. 31. 111. 221. 21. 120. 194. 138. 198. 42. 1. 157. 11.
      191. 148. 135. 175. 247. 20. 65. 74. 71. 181. 174. 50. 96. 252.
      43. 19. 141. 247. 152. 49. 63. 233. 175. 190. 64. 24. 8. 177. 152.
      80. 120. 25. 245. 40. 205. 81. 54. 174. 168. 162. 72. 183. 151. 1.
      112. 132. 55. 124. 8. 9. 105. 211. 61. 193. 167. 51. 24. 0. 16. 7.
      59. 0. 132. 41. 251. 212. 229. 161. 47. 86. 9. 73. 16. 176. 243.
      40. 96. 217. 10. 19. 153. 50. 152. 91. 23. 77. 134. 186. 64. 144.
      72. 181. 170. 75. 107. 74. 173. 116. 153. 104. 23. 105. 1. 126.
      205. 175. 138. 150. 244. 46. 171. 126. 12. 204. 186. 196. 192.
      182. 253. 50. 136. 70. 132. 202. 141. 216. 185. 255. 252. 170.
      200. 21. 103. 163. 149. 164. 57. 63. 247. 64. 19. 166. 247. 237.
      128. 90. 75. 162. 33. 219. 225. 116. 59. 32. 192. 167. 123. 51.
      172. 66. 30. 93. 147. 230. 239. 87. 166. 96. 11. 96. 232. 62. 164.
      121. 234. 130. 173. 110. 250. 78. 159. 62. 15. 149. 109. 127. 12.
      250. 142. 166. 175. 170. 154. 221. 209. 150. 239. 214. 31. 208.
      27. 96. 236. 126. 1. 217. 235. 227. 145. 118. 107. 138. 247. 123.
      23. 157. 127. 209. 76. 254. 206. 69. 49. 57. 101. 177. 78. 103.
      49. 105. 232. 111. 8. 222. 87. 8. 116. 144. 92. 124. 106. 65. 144.
      249. 12. 229. 188. 5. 52. 74. 162. 194. 35. 2. 157. 10. 155. 244.
      133. 190. 103. 28. 13. 92. 3. 164. 191. 50. 64. 220. 59. 19. 129.
      82. 152. 16. 255. 111. 53. 154. 195. 20. 10. 181. 218. 237. 61.
      177. 69. 253. 111. 67. 152. 123. 232. 108. 8. 222. 117. 69. 52.
      153. 220. 102. 122. 41. 244. 249. 174. 111. 222. 5. 116. 202. 251.
      70. 242. 42. 133. 44. 187. 157. 229. 129. 239. 22. 21. 141. 19.
      193. 124. 122. 72. 217. 10. 27. 157. 62. 42. 91. 149. 205. 95.
      154. 125. 145. 10. 220. 194. 97. 37. 57. 97. 212. 237. 67. 23. 99.
      97. 108. 8. 147. 145. 64. 48. 152. 190. 64. 24. 27. 186. 241. 18.
      103. 157. 1. 116. 194. 202. 198. 170. 167. 196. 173. 219. 205.
      117. 173. 239. 86. 83. 69. 19. 240. 124. 63. 109. 217. 74. 51.
      159. 183. 102. 127. 243. 15. 26. 223. 104. 215. 93. 240. 254. 65.
      249. 17. 101. 48. 206. 103. 180. 40. 104. 106. 72. 247. 23. 0.
      112. 144. 116. 124. 104. 65. 152. 145. 45. 229. 188. 32. 16. 72.
      2. 3. 59. 104. 52. 57. 113. 73. 237. 65. 18. 99. 171. 110. 24.
      182. 151. 64. 120. 129. 30. 104. 8. 27. 124. 243. 18. 207. 253.
      16. 48. 192. 64. 70. 42. 26. 207. 98. 136. 87. 211. 174. 231. 13.
      1. 88. 226. 41. 142. 180. 196. 110. 171. 151. 193. 214. 155. 4.
      253. 50. 100. 138. 195. 55. 14. 181. 141. 88. 56. 190. 242. 139.
      249. 17. 70. 171. 151. 164. 25. 62. 255. 98. 26. 163. 243. 237.
      16. 26. 107. 178. 96. 219. 195. 84. 59. 226. 81. 175. 106. 228.
      244. 189. 119. 173. 111. 87. 158. 115. 191. 172. 24. 210. 117. 73.
      59. 153. 86. 104. 58. 57. 96. 251. 50. 239. 223. 85. 53. 192. 121.
      198. 34. 72. 60. 187. 116. 136. 76. 117. 178. 249. 200. 166. 8.
      150. 183. 64. 59. 133. 118. 124. 8. 65. 107. 178. 32. 219. 251.
      117. 56. 72. 96. 198. 123. 6. 151. 40. 139. 213. 149. 186. 237.
      30. 69. 93. 7. 228. 204. 62. 64. 220. 11. 147. 179. 214. 184. 89.
      255. 111. 21. 142. 67. 28. 14. 185. 214. 165. 205. 195. 78. 213.
      55. 239. 249. 81. 226. 121. 78. 83. 96. 189. 164. 121. 206. 18.
      238. 233. 178. 125. 190. 61. 14. 133. 36. 127. 255. 242. 164. 59.
      79. 98. 13. 116. 27. 238. 112. 101. 108. 252. 239. 107. 72. 183.
      180. 126. 168. 134. 239. 204. 178. 101. 205. 54. 93. 160. 129.
      127. 190. 122. 205. 166. 160. 188. 250. 77. 109. 144. 200. 139.
      55. 161. 25. 196. 221. 125. 11. 201. 145. 123. 19. 26. 103. 218.
      208. 95. 88. 219. 127. 208. 11. 86. 130. 153. 140. 79. 189. 22.
      162. 236. 39. 52. 2. 66. 146. 113. 35. 48. 97. 114. 183. 59. 173.
      112. 156. 5. 207. 241. 175. 218. 0. 37. 192. 161. 40. 2. 135. 42.
      139. 212. 129. 187. 237. 30. 13. 93. 131. 228. 238. 62. 64. 253.
      27. 147. 231. 214. 152. 72. 255. 45. 5. 170. 195. 21. 11. 189.
      211. 108. 173. 189. 126. 141. 111. 87. 168. 66. 190. 173. 8. 210.
      113. 72. 51. 153. 214. 104. 122. 122. 98. 251. 49. 235. 219. 69.
      125. 210. 123. 198. 34. 26. 141. 2. 190. 149. 167. 238. 231. 149.
      1. 218. 2. 44. 235. 32. 196. 248. 235. 19. 193. 74. 155. 16. 255.
      185. 230. 142. 0. 55. 90. 176. 138. 144. 20. 31. 191. 38. 98. 105.
      55. 188. 22. 195. 51. 245. 23. 0. 75. 102. 21. 61. 137. 104. 220.
      49. 13. 197. 163. 250. 128. 36. 0. 37. 123. 195. 6. 140. 149. 172.
      58. 188. 7. 158. 247. 154. 183. 140. 40. 214. 203. 203. 71. 251.
      149. 180. 252. 71. 194. 12. 115. 222. 215. 132. 124. 153. 76. 34.
      205. 35. 186. 221. 197. 142. 236. 142. 0. 217. 67. 236. 221. 56.
      64. 220. 123. 19. 195. 90. 171. 90. 253. 185. 84. 142. 74. 21. 26.
      181. 154. 61. 205. 109. 239. 28. 71. 79. 248. 68. 96. 152. 2. 243.
      85. 56. 97. 88. 208. 93. 234. 201. 163. 121. 61. 225. 233. 165.
      20. 53. 187. 84. 104. 45. 101. 97. 79. 244. 11. 239. 248. 85. 160.
      124. 74. 83. 97. 157. 52. 122. 204. 22. 238. 201. 178. 109. 158.
      38. 156. 165. 4. 119. 250. 82. 160. 92. 249. 222. 119. 178. 74.
      118. 244. 249. 152. 238. 32. 111. 243. 129. 19. 182. 247. 236. 82.
      64. 217. 139. 104. 255. 251. 103. 3. 226. 243. 175. 43. 208. 64.
      46. 165. 6. 2. 93. 54. 164. 150. 146. 147. 247. 31. 17. 75. 102.
      213. 125. 227. 104. 197. 17. 12. 241. 227. 250. 129. 36. 176. 53.
      74. 19. 223. 103. 223. 54. 130. 175. 244. 148. 64. 218. 230. 241.
      231. 181. 100. 126. 106. 31. 207. 225. 153. 61. 253. 164. 40. 174.
      128. 63. 186. 177. 189. 228. 125. 29. 115. 136. 237. 67. 148. 241.
      33. 238. 24. 215. 117. 9. 113. 144. 246. 104. 122. 41. 224. 251.
      46. 229. 249. 5. 48. 192. 83. 70. 34. 105. 184. 189. 229. 40. 108.
      89. 154. 43. 250. 182. 12. 159. 55. 65. 59. 133. 212. 125. 8. 169.
      72. 249. 0. 207. 251. 117. 52. 202. 224. 70. 123. 19. 79. 98. 220.
      116. 150. 255. 119. 189. 68. 222. 162. 56. 238. 182. 100. 126.
      239. 23. 205. 232. 187. 36. 239. 118. 62. 170. 128. 7. 172. 112.
      237. 178. 169. 250. 255. 108. 11. 254. 105. 95. 165. 243. 27. 237.
      234. 52. 64. 250. 239. 127. 195. 232. 187. 79. 251. 190. 190. 207.
      51. 21. 170. 249. 138. 17. 31. 11. 175. 18. 130. 42. 55. 52. 128.
      74. 230. 245. 99. 161. 64. 54. 111. 8. 238. 65. 152. 5. 47. 164.
      166. 174. 128. 44. 162. 33. 57. 131. 133. 4. 159. 141. 213. 140.
      175. 156. 23. 192. 19. 232. 104. 62. 229. 201. 3. 187. 133. 126.
      205. 83. 255. 161. 114. 222. 83. 16. 92. 185. 142. 129. 4. 95.
      213. 36. 46. 232. 19. 124. 179. 83. 82. 157. 43. 180. 235. 99. 5.
      58. 168. 161. 252. 17. 206. 133. 251. 218. 0. 140. 200. 97. 168.
      47. 5. 99. 79. 213. 27. 238. 248. 85. 224. 120. 198. 105. 104.
      189. 228. 122. 206. 18. 238. 229. 178. 125. 255. 54. 126. 135. 4.
      127. 255. 120. 164. 160. 224. 28. 155. 108. 139. 228. 45. 94. 49.
      225. 90. 214. 0. 24. 65. 217. 10. 106. 45. 114. 126. 75. 21. 44.
      130. 23. 116. 80. 8. 210. 136. 33. 37. 97. 73. 212. 207. 195. 125.
      71. 96. 124. 72. 83. 17. 148. 52. 88. 138. 18. 124. 219. 186. 117.
      31. 111. 156. 129. 96. 123. 138. 210. 160. 191. 76. 110. 238. 7.
      214. 207. 112. 213. 198. 206. 130. 121. 253. 55. 101. 120. 228.
      17. 238. 232. 183. 52. 174. 243. 239. 194. 1. 55. 191. 116. 104.
      66. 78. 174. 158. 74. 192. 191. 102. 180. 198. 198. 163. 100. 239.
      54. 65. 111. 243. 171. 135. 100. 207. 14. 111. 124. 39. 254. 139.
      21. 96. 37. 218. 239. 53. 241. 67. 237. 127. 214. 168. 123. 242.
      188. 8. 202. 120. 215. 183. 153. 196. 254. 122. 237. 98. 249. 154.
      63. 88. 69. 62. 203. 127. 90. 182. 80. 185. 187. 100. 1. 204. 85.
      115. 240. 96. 238. 8. 62. 183. 0. 51. 160. 246. 120. 8. 1. 123.
      176. 33. 219. 233. 68. 10. 72. 64. 230. 123. 192. 42. 152. 48. 98.
      169. 48. 2. 58. 49. 96. 185. 143. 135. 64. 26. 167. 191. 97. 16.
      18. 94. 130. 64. 204. 148. 24. 105. 160. 128. 7. 131. 190. 50.
      119. 235. 108. 91. 251. 121. 63. 238. 247. 247. 223. 207. 182.
      109. 255. 189. 255. 191. 176. 246. 233. 220. 215. 123. 235. 199.
      119. 174. 103. 241. 56. 0. 115. 169. 85. 231. 241. 114. 69. 68.
      92. 2. 35. 28. 48. 100. 88. 40. 23. 41. 138. 188. 116. 159. 87.
      92. 154. 66. 55. 136. 116. 238. 60. 185. 56. 123. 218. 203. 179.
      200. 86. 180. 240. 42. 215. 221. 72. 48. 123. 187. 98. 114. 18.
      114. 123. 61. 93. 135. 37. 125. 241. 11. 70. 162. 134. 199. 35.
      219. 212. 195. 175. 255. 31. 11. 88. 210. 116. 238. 56. 100. 127.
      91. 19. 145. 243. 154. 107. 255. 61. 22. 143. 204. 149. 90. 181.
      249. 17. 205. 11. 252. 20. 134. 111. 247. 148. 0. 202. 2. 53. 182.
      48. 96. 106. 43. 31. 201. 123. 137. 48. 61. 225. 237. 174. 192.
      52. 8. 177. 40. 49. 221. 27. 234. 84. 135. 231. 248. 30. 0. 105.
      66. 117. 209. 40. 96. 120. 122. 18. 107. 67. 178. 26. 63. 249.
      140. 39. 108. 89. 10. 97. 160. 124. 160. 252. 238. 13. 93. 83.
      232. 203. 53. 189. 10. 122. 253. 95. 59. 217. 209. 255. 242. 14.
      99. 250. 241. 219. 219. 215. 127. 211. 47. 94. 106. 59. 80. 107.
      200. 52. 215. 216. 120. 20. 64. 213. 2. 49. 31. 176. 100. 88. 168.
      23. 172. 137. 167. 112. 159. 83. 237. 162. 136. 63. 136. 112. 248.
      39. 162. 236. 26. 236. 25. 196. 232. 91. 190. 189. 143. 226. 232.
      95. 11. 217. 202. 231. 23. 222. 98. 207. 177. 94. 27. 229. 253.
      213. 255. 90. 196. 3. 153. 106. 153. 118. 135. 184. 119. 92. 73.
      92. 103. 56. 158. 182. 96. 238. 43. 19. 133. 151. 184. 4. 223. 7.
      60. 186. 194. 29. 12. 121. 223. 27. 205. 98. 222. 54. 128. 175.
      247. 132. 8. 94. 162. 57. 222. 184. 96. 110. 171. 23. 205. 194.
      152. 38. 253. 96. 233. 170. 192. 55. 134. 161. 169. 84. 49. 191.
      102. 168. 78. 85. 17. 224. 254. 167. 24. 215. 183. 64. 59. 33.
      118. 124. 24. 49. 99. 176. 0. 203. 169. 101. 80. 192. 98. 199.
      115. 127. 123. 98. 69. 117. 27. 239. 120. 97. 236. 253. 239. 75.
      72. 151. 180. 126. 204. 214. 239. 204. 178. 236. 204. 54. 93. 161.
      181. 111. 191. 90. 213. 131. 197. 111. 155. 159. 209. 191. 237.
      220. 65. 76. 131. 249. 92. 62. 225. 122. 3. 155. 229. 119. 169.
      63. 253. 41. 107. 158. 64. 21. 14. 177. 236. 140. 194. 24. 171.
      28. 133. 219. 216. 6. 21. 197. 19. 151. 79. 106. 64. 220. 25. 19.
      211. 10. 38. 90. 53. 201. 193. 170. 125. 48. 139. 53. 226. 45.
      205. 98. 210. 213. 221. 199. 220. 87. 101. 220. 10. 115. 193. 191.
      164. 89. 234. 18. 126. 235. 178. 58. 191. 107. 95. 133. 112. 151.
      159. 216. 228. 107. 105. 226. 4. 217. 248. 94. 135. 171. 237. 172.
      137. 40. 174. 87. 150. 168. 231. 241. 213. 28. 75. 230. 232. 58.
      93. 141. 187. 195. 116. 222. 206. 130. 156. 190. 191. 139. 224.
      180. 7. 158. 87. 74. 51. 172. 190. 38. 75. 231. 51. 187. 145. 54.
      77. 18. 243. 197. 50. 222. 75. 144. 84. 165. 91. 167. 97. 96. 11.
      220. 23. 238. 216. 83. 224. 253. 78. 64. 200. 255. 164. 88. 200.
      18. 255. 207. 50. 124. 184. 62. 8. 133. 172. 95. 191. 122. 212.
      82. 56. 151. 182. 11. 200. 49. 64. 175. 132. 162. 43. 110. 254.
      100. 82. 163. 245. 235. 1. 4. 207. 146. 232. 145. 178. 75. 27. 0.
      32. 39. 23. 105. 107. 50. 36. 116. 137. 67. 119. 105. 172. 120.
      109. 183. 153. 80. 16. 138. 238. 68. 89. 74. 58. 192. 45. 252.
      252. 36. 56. 72. 8. 66. 139. 198. 190. 188. 186. 139. 244. 149.
      207. 154. 159. 133. 181. 196. 254. 111. 75. 133. 83. 233. 147. 54.
      71. 138. 240. 219. 19. 127. 255. 144. 117. 173. 83. 2. 180. 40.
      155. 213. 231. 185. 79. 30. 81. 89. 19. 212. 124. 62. 64. 221. 27.
      19. 149. 179. 156. 121. 215. 13. 22. 154. 70. 148. 76. 181. 242.
      88. 252. 250. 240. 170. 232. 21. 199. 179. 159. 188. 57. 63. 183.
      66. 90. 167. 247. 237. 144. 58. 79. 162. 35. 251. 231. 52. 251.
      226. 80. 166. 107. 2. 140. 115. 217. 246. 195. 47. 231. 94. 3. 90.
      162. 57. 135. 180. 96. 127. 59. 23. 152. 163. 152. 36. 255. 37.
      174. 186. 128. 180. 152. 165. 185.</_>
    <_>
      109. 103. 192. 71. 180. 62. 70. 188. 96. 160. 175. 76. 243. 96.
      216. 176. 24. 206. 108. 110. 205. 178. 237. 46. 238. 237. 165. 52.
      107. 243. 218. 4. 169. 118. 54. 77. 233. 127. 149. 95. 220. 234.
      188. 60. 210. 240. 143. 191. 152. 38. 206. 42. 229. 101. 224. 26.
      102. 219. 97. 51. 66. 253. 198. 165. 205. 113. 189. 71. 32. 31.
      111. 184. 105. 232. 55. 76. 222. 117. 221. 51. 148. 196. 124. 110.
      193. 240. 249. 8. 231. 217. 101. 180. 74. 179. 66. 53. 237. 112.
      189. 103. 37. 79. 67. 24. 104. 234. 39. 8. 214. 81. 9. 59. 144.
      84. 124. 106. 41. 244. 249. 10. 197. 187. 97. 52. 74. 59. 66. 34.
      1. 205. 43. 190. 20. 195. 239. 230. 212. 64. 88. 2. 240. 236. 176.
      96. 88. 234. 19. 207. 235. 186. 44. 255. 96. 44. 170. 128. 29.
      154. 176. 248. 69. 52. 223. 86. 99. 248. 178. 66. 233. 195. 107.
      40. 120. 250. 172. 186. 178. 127. 226. 2. 21. 227. 182. 96. 23.
      47. 70. 11. 201. 99. 107. 151. 67. 251. 17. 30. 58. 156. 51. 184.
      170. 89. 138. 229. 188. 214. 128. 244. 135. 117. 252. 68. 131. 9.
      170. 117. 168. 52. 43. 218. 8. 6. 3. 125. 108. 165. 185. 101. 157.
      77. 83. 184. 99. 172. 173. 8. 83. 117. 72. 16. 153. 212. 108. 58.
      24. 34. 249. 18. 239. 221. 5. 117. 194. 235. 70. 34. 216. 126. 27.
      18. 50. 168. 67. 146. 59. 30. 103. 252. 63. 199. 129. 85. 55. 250.
      76. 10. 43. 94. 168. 127. 242. 246. 48. 40. 42. 209. 3. 57. 100.
      109. 191. 98. 149. 239. 83. 22. 226. 160. 175. 8. 215. 241. 1. 48.
      144. 126. 72. 56. 25. 161. 240. 44. 225. 253. 5. 113. 192. 115.
      70. 34. 236. 237. 224. 83. 122. 25. 242. 176. 123. 176. 37. 152.
      43. 133. 214. 183. 39. 76. 228. 94. 226. 124. 220. 46. 110. 89. 5.
      117. 107. 167. 74. 153. 80. 221. 27. 101. 50. 204. 103. 182. 236.
      128. 106. 96. 182. 151. 1. 112. 34. 126. 92. 72. 65. 153. 176.
      109. 241. 172. 38. 0. 40. 18. 35. 59. 33. 236. 215. 94. 200. 175.
      164. 239. 255. 147. 105. 88. 98. 240. 36. 60. 185. 234. 98. 0. 39.
      127. 26. 127. 28. 30. 85. 74. 201. 88. 226. 140. 173. 122. 243.
      79. 114. 91. 167. 248. 123. 226. 113. 232. 72. 244. 141. 180. 62.
      92. 194. 106. 227. 246. 172. 235. 38. 28. 5. 38. 103. 179. 71.
      181. 217. 236. 26. 178. 50. 128. 75. 150. 55. 67. 134. 148. 191.
      135. 202. 84. 55. 207. 124. 222. 107. 77. 185. 115. 248. 229. 62.
      232. 34. 145. 163. 121. 170. 165. 33. 251. 213. 229. 233. 239. 94.
      65. 89. 18. 184. 125. 60. 0. 217. 11. 19. 185. 51. 186. 121. 215.
      109. 94. 158. 100. 213. 72. 245. 234. 154. 221. 38. 188. 29. 199.
      159. 231. 148. 70. 208. 19. 172. 223. 48. 69. 232. 115. 155. 199.
      104. 175. 18. 255. 225. 114. 222. 19. 23. 28. 181. 250. 140. 143.
      4. 179. 189. 175. 69. 183. 151. 63. 6. 29. 198. 33. 83. 79. 201.
      66. 107. 29. 250. 108. 89. 182. 237. 210. 85. 116. 154. 92. 208.
      74. 237. 177. 136. 167. 188. 14. 94. 153. 18. 249. 23. 29. 215.
      40. 90. 66. 209. 196. 125. 127. 189. 80. 221. 2. 236. 103. 237.
      244. 172. 126. 152. 83. 242. 107. 200. 173. 203. 7. 94. 223. 55.
      167. 70. 159. 3. 35. 83. 88. 124. 206. 171. 157. 238. 218. 209.
      130. 254. 102. 149. 33. 191. 252. 188. 90. 182. 101. 255. 88. 219.
      211. 180. 206. 255. 147. 244. 50. 40. 222. 229. 191. 107. 251.
      226. 208. 119. 239. 38. 114. 59. 73. 87. 123. 213. 80. 239. 175.
      86. 1. 239. 223. 143. 100. 189. 7. 172. 19. 74. 146. 221. 110. 52.
      106. 99. 119. 59. 149. 16. 216. 55. 224. 173. 46. 222. 1. 164.
      116. 181. 100. 164. 108. 196. 23. 201. 107. 198. 206. 210. 186.
      169. 24. 226. 96. 93. 159. 9. 102. 98. 10. 40. 102. 207. 58. 37.
      14. 85. 61. 241. 121. 210. 142. 189. 117. 141. 101. 176. 47. 79.
      184. 50. 226. 143. 204. 211. 117. 193. 55. 29. 212. 93. 110. 105.
      212. 217. 14. 232. 207. 101. 180. 110. 243. 2. 48. 144. 205. 23.
      255. 52. 196. 77. 39. 157. 2. 206. 18. 249. 39. 32. 197. 232. 162.
      10. 200. 121. 141. 33. 239. 161. 178. 222. 0. 16. 216. 244. 104.
      53. 205. 108. 238. 156. 135. 207. 253. 68. 64. 221. 6. 115. 72.
      58. 97. 88. 194. 31. 239. 249. 163. 125. 61. 241. 171. 175. 20.
      61. 187. 240. 248. 252. 19. 248. 108. 174. 8. 87. 152. 82. 165.
      44. 108. 215. 97. 201. 80. 87. 212. 44. 114. 152. 50. 201. 2. 250.
      229. 37. 61. 248. 251. 196. 49. 89. 199. 92. 71. 48. 62. 111. 188.
      100. 168. 110. 68. 211. 33. 153. 116. 20. 68. 108. 110. 201. 176.
      109. 47. 238. 239. 101. 68. 106. 178. 72. 41. 12. 48. 187. 113.
      21. 207. 113. 81. 124. 73. 103. 24. 214. 87. 8. 56. 176. 24. 82.
      24. 3. 180. 49. 0. 67. 155. 16. 64. 194. 9. 231. 242. 21. 161.
      134. 11. 150. 139. 163. 200. 118. 164. 67. 134. 225. 192. 16. 4.
      49. 104. 106. 95. 50. 240. 29. 63. 12. 6. 5. 68. 105. 35. 49. 132.
      102. 175. 217. 90. 122. 248. 190. 232. 171. 29. 57. 232. 108. 238.
      205. 19. 135. 251. 198. 82. 38. 75. 170. 123. 63. 149. 37. 187.
      80. 211. 15. 175. 169. 166. 21. 63. 48. 143. 96. 55. 118. 43. 115.
      124. 247. 33. 128. 181. 17. 46. 100. 12. 177. 252. 69. 31. 140.
      231. 113. 80. 74. 136. 203. 169. 162. 201. 31. 218. 77. 197. 164.
      228. 142. 16. 192. 2. 176. 223. 97. 37. 200. 57. 19. 194. 66. 47.
      18. 241. 23. 16. 218. 43. 17. 25. 52. 170. 93. 104. 140. 49. 137.
      251. 73. 146. 86. 183. 174. 21. 131. 35. 83. 90. 65. 236. 232.
      156. 12. 84. 253. 48. 207. 203. 213. 117. 178. 245. 76. 66. 248.
      248. 62. 120. 152. 201. 81. 239. 179. 29. 164. 57. 55. 247. 74.
      16. 129. 147. 237. 16. 122. 75. 138. 55. 219. 199. 116. 125. 112.
      0. 198. 11. 193. 166. 85. 69. 120. 10. 168. 43. 108. 162. 122.
      252. 181. 34. 132. 50. 166. 21. 110. 0. 241. 252. 197. 79. 4. 186.
      51. 4. 72. 224. 67. 137. 45. 110. 223. 115. 228. 43. 103. 144.
      118. 162. 126. 64. 215. 97. 129. 120. 51. 108. 38. 90. 33. 244.
      201. 46. 108. 239. 37. 68. 224. 251. 66. 160. 200. 111. 223. 247.
      224. 138. 102. 181. 52. 130. 106. 88. 247. 227. 9. 25. 50. 238.
      98. 74. 104. 212. 203. 43. 228. 227. 119. 0. 96. 242. 195. 40.
      165. 237. 196. 67. 228. 47. 230. 140. 118. 178. 107. 88. 211. 97.
      221. 191. 89. 78. 98. 126. 249. 244. 77. 34. 44. 154. 69. 84. 201.
      251. 210. 132. 101. 231. 196. 91. 224. 14. 103. 184. 114. 50. 99.
      72. 211. 99. 153. 217. 89. 204. 96. 254. 121. 208. 205. 50. 44.
      174. 229. 68. 200. 243. 194. 160. 184. 105. 58. 126. 89. 205. 83.
      228. 241. 12. 228. 8. 51. 213. 35. 16. 136. 186. 69. 74. 106. 47.
      50. 63. 243. 205. 32. 57. 97. 147. 102. 234. 84. 253. 211. 162.
      150. 74. 22. 205. 122. 225. 138. 42. 87. 184. 65. 176. 179. 223.
      124. 113. 31. 91. 152. 42. 185. 196. 13. 118. 172. 123. 147. 2.
      133. 37. 2. 9. 202. 35. 163. 74. 118. 160. 232. 128. 225. 226. 81.
      0. 121. 79. 98. 251. 20. 242. 207. 82. 28. 32. 11. 104. 233. 115.
      35. 132. 212. 160. 188. 114. 139. 108. 85. 15. 179. 55. 165. 25.
      159. 55. 74. 27. 161. 151. 236. 16. 62. 71. 250. 0. 219. 227. 84.
      127. 224. 64. 135. 66. 141. 233. 158. 91. 201. 141. 39. 237. 190.
      182. 97. 28. 242. 227. 77. 147. 17. 106. 98. 90. 98. 116. 219.
      115. 109. 139. 69. 44. 192. 114. 203. 136. 83. 115. 19. 40. 50.
      139. 90. 64. 41. 96. 160. 237. 175. 142. 131. 16. 182. 161. 92.
      103. 205. 3. 132. 29. 176. 209. 42. 184. 56. 6. 11. 85. 252. 41.
      158. 182. 137. 201. 84. 65. 163. 190. 161. 9. 167. 209. 65. 18.
      137. 250. 237. 18. 120. 103. 218. 56. 219. 193. 69. 59. 112. 106.
      78. 2. 114. 188. 236. 69. 91. 103. 81. 119. 49. 239. 190. 45. 50.
      61. 70. 20. 45. 182. 117. 132. 232. 251. 241. 15. 127. 14. 49.
      178. 105. 104. 86. 123. 35. 41. 66. 77. 85. 155. 234. 72. 95. 32.
      112. 66. 8. 8. 180. 164. 120. 168. 2. 238. 165. 186. 69. 254. 54.
      94. 146. 2. 95. 141. 122. 140. 43. 58. 98. 41. 119. 191. 187. 72.
      94. 68. 113. 135. 168. 200. 183. 0. 251. 41. 19. 37. 134. 182. 62.
      223. 68. 93. 139. 168. 93. 15. 123. 198. 77. 116. 61. 103. 176.
      111. 119. 53. 121. 234. 111. 8. 215. 55. 0. 48. 149. 116. 92. 58.
      17. 248. 249. 12. 237. 223. 37. 116. 192. 226. 134. 115. 145. 201.
      95. 236. 22. 134. 174. 103. 220. 0. 66. 194. 49. 136. 52. 65. 106.
      169. 19. 225. 225. 185. 20. 93. 49. 34. 138. 0. 61. 8. 177. 136.
      167. 160. 193. 219. 220. 53. 202. 216. 87. 115. 145. 222. 208. 76.
      220. 172. 93. 8. 146. 159. 187. 118. 95. 243. 12. 30. 155. 252.
      159. 205. 216. 180. 188. 239. 85. 87. 210. 139. 38. 236. 50. 161.
      107. 242. 97. 97. 136. 145. 51. 238. 66. 106. 112. 252. 13. 63.
      44. 143. 37. 68. 101. 131. 194. 160. 85. 71. 1. 47. 176. 6. 78.
      184. 52. 232. 219. 196. 211. 98. 153. 112. 55. 204. 28. 254. 185.
      144. 205. 62. 184. 174. 175. 196. 172. 179. 160. 49. 124. 63. 216.
      39. 170. 59. 86. 186. 27. 174. 58. 239. 71. 57. 193. 146. 183.
      215. 228. 35. 60. 112. 201. 42. 254. 199. 37. 183. 229. 251. 78.
      3. 117. 79. 156. 55. 148. 42. 103. 148. 118. 162. 234. 72. 215.
      97. 137. 91. 49. 230. 108. 126. 41. 240. 205. 62. 172. 162. 101.
      16. 232. 251. 88. 32. 133. 173. 30. 27. 154. 139. 166. 236. 254.
      50. 99. 146. 244. 208. 12. 33. 59. 122. 106. 82. 118. 253. 79. 55.
      44. 2. 31. 82. 209. 25. 129. 132. 231. 205. 128. 222. 237. 60. 70.
      156. 91. 179. 41. 92. 64. 226. 221. 255. 209. 70. 40. 126. 63. 82.
      219. 179. 62. 122. 197. 126. 154. 251. 88. 4. 133. 107. 68. 45.
      78. 11. 164. 108. 116. 160. 226. 194. 213. 32. 145. 1. 122. 237.
      98. 231. 96. 178. 77. 92. 180. 2. 111. 32. 125. 186. 35. 128. 217.
      72. 79. 229. 12. 6. 77. 48. 116. 226. 246. 246. 211. 3. 145. 123.
      98. 228. 108. 238. 232. 245. 101. 12. 208. 235. 226. 16. 37. 177.
      96. 40. 130. 148. 159. 158. 139. 228. 189. 103. 190. 31. 66. 55.
      188. 254. 44. 75. 231. 51. 59. 129. 118. 205. 18. 215. 105. 50.
      90. 195. 152. 64. 165. 27. 200. 121. 127. 101. 112. 78. 119. 52.
      57. 232. 118. 40. 255. 23. 129. 51. 54. 116. 125. 106. 225. 212.
      241. 46. 231. 251. 101. 128. 98. 178. 71. 123. 125. 237. 225. 70.
      221. 90. 71. 168. 115. 166. 169. 8. 67. 96. 221. 182. 24. 196.
      104. 107. 104. 99. 237. 42. 56. 46. 69. 61. 103. 247. 210. 100.
      212. 173. 150. 62. 136. 43. 6. 239. 252. 179. 169. 24. 199. 226.
      0. 11. 137. 71. 104. 34. 120. 111. 139. 47. 184. 162. 87. 60. 72.
      121. 171. 0. 154. 76. 22. 188. 13. 214. 159. 230. 149. 6. 198. 18.
      237. 239. 33. 67. 232. 113. 187. 226. 104. 205. 51. 239. 177. 243.
      222. 18. 20. 56. 53. 58. 32. 99. 80. 73. 106. 169. 32. 76. 238.
      17. 168. 232. 166. 194. 196. 28. 130. 11. 74. 80. 2. 107. 194. 81.
      132. 144. 16. 122. 80. 1. 67. 140. 16. 233. 174. 191. 79. 203.
      100. 77. 134. 177. 193. 11. 39. 233. 80. 2. 40. 155. 107. 1. 74.
      251. 219. 17. 213. 0. 29. 41. 97. 10. 182. 138. 84. 20. 253. 100.
      168. 110. 87. 184. 224. 242. 175. 24. 83. 119. 65. 123. 1. 212.
      125. 106. 57. 65. 187. 8. 219. 235. 101. 20. 224. 241. 70. 115.
      108. 52. 149. 69. 169. 126. 101. 154. 115. 187. 174. 112. 218. 55.
      201. 254. 81. 212. 236. 56. 25. 68. 249. 194. 143. 254. 85. 86.
      138. 241. 192. 53. 36. 160. 28. 219. 77. 205. 161. 73. 206. 17.
      161. 24. 144. 216. 124. 8. 201. 25. 98. 17. 18. 98. 90. 209. 77.
      153. 147. 127. 209. 11. 214. 162. 3. 146. 5. 153. 111. 145. 168.
      121. 15. 113. 80. 230. 204. 120. 188. 228. 254. 1. 179. 133. 133.
      48. 6. 213. 12. 26. 203. 162. 31. 44. 25. 133. 50. 249. 59. 250.
      93. 197. 242. 192. 135. 8. 201. 66. 48. 223. 33. 96. 216. 56. 19.
      194. 74. 43. 26. 253. 115. 156. 138. 42. 17. 11. 116. 186. 226.
      236. 212. 82. 201. 189. 100. 135. 187. 51. 160. 24. 46. 179. 68.
      159. 129. 214. 232. 26. 114. 111. 218. 243. 63. 218. 84. 123. 194.
      85. 202. 46. 1. 171. 197. 165. 142. 11. 100. 143. 86. 182. 74.
      202. 215. 33. 209. 138. 19. 78. 34. 61. 80. 248. 197. 0. 140. 130.
      117. 52. 228. 248. 81. 136. 213. 173. 135. 55. 137. 171. 7. 171.
      182. 186. 130. 56. 230. 240. 200. 135. 17. 102. 104. 18. 111. 69.
      203. 51. 168. 130. 109. 48. 72. 112. 131. 4. 70. 51. 211. 83. 226.
      106. 177. 200. 123. 184. 118. 234. 76. 246. 237. 190. 55. 95. 230.
      112. 19. 243. 174. 64. 29. 160. 103. 239. 227. 99. 39. 165. 93.
      12. 134. 183. 156. 166. 103. 160. 180. 130. 203. 4. 241. 98. 25.
      90. 113. 230. 120. 175. 57. 209. 205. 46. 244. 39. 239. 16. 168.
      115. 48. 32. 147. 221. 30. 255. 149. 214. 239. 247. 157. 66. 206.
      18. 253. 119. 50. 101. 106. 35. 27. 232. 105. 137. 51. 255. 161.
      243. 222. 0. 18. 24. 181. 56. 101. 111. 204. 71. 176. 27. 103.
      188. 63. 160. 46. 236. 247. 97. 153. 52. 22. 68. 108. 110. 105.
      208. 237. 46. 238. 190. 37. 16. 238. 243. 2. 48. 248. 183. 26.
      184. 219. 201. 115. 123. 183. 132. 237. 61. 47. 211. 2. 208. 51.
      190. 232. 32. 59. 11. 218. 31. 253. 225. 33. 121. 34. 128. 142.
      18. 161. 128. 15. 251. 84. 197. 169. 96. 84. 64. 69. 18. 176. 209.
      56. 97. 104. 56. 19. 141. 99. 190. 80. 93. 85. 41. 138. 72. 17.
      10. 113. 170. 174. 170. 172. 186. 140. 165. 157. 222. 150. 190.
      148. 157. 229. 237. 83. 11. 205. 107. 235. 149. 174. 79. 202. 177.
      205. 83. 255. 185. 148. 253. 20. 74. 116. 242. 220. 210. 170. 57.
      84. 156. 135. 191. 181. 185. 199. 225. 203. 95. 3. 214. 237. 16.
      26. 99. 203. 48. 218. 211. 117. 255. 242. 249. 204. 3. 224. 180.
      61. 117. 1. 111. 65. 190. 120. 58. 38. 24. 214. 55. 0. 49. 145.
      86. 104. 8. 41. 116. 249. 50. 207. 250. 85. 52. 64. 241. 70. 42.
      174. 253. 60. 82. 249. 93. 159. 248. 27. 122. 188. 41. 124. 252.
      79. 145. 157. 83. 215. 99. 231. 103. 123. 55. 111. 95. 109. 255.
      90. 126. 14. 219. 247. 118. 230. 31. 186. 63. 126. 186. 127. 234.
      251. 253. 107. 108. 159. 150. 191. 239. 253. 167. 173. 247. 207.
      238. 190. 126. 109. 146. 207. 247. 74. 85. 124. 98. 156. 247. 168.
      9. 85. 153. 163. 191. 183. 184. 207. 225. 203. 15. 11. 84. 237.
      18. 88. 101. 203. 160. 234. 211. 117. 61. 226. 250. 142. 3. 176.
      32. 142. 137. 78. 11. 164. 73. 22. 162. 64. 215. 66. 192. 41. 8.
      121. 136. 2. 37. 42. 242. 93. 31. 148. 6. 13. 4. 249. 88. 186.
      128. 222. 62. 150. 178. 169. 189. 16. 66. 187. 63. 161. 57. 174.
      178. 65. 159. 135. 179. 236. 16. 62. 79. 146. 243. 153. 243. 91.
      123. 130. 69. 15. 7. 252. 236. 196. 23. 137. 83. 71. 168. 115.
      230. 166. 24. 99. 96. 195. 151. 25. 204. 232. 98. 108. 231. 239.
      42. 186. 231. 69. 63. 227. 245. 254. 70. 144. 236. 150. 179. 145.
      239. 101. 239. 191. 59. 226. 16. 246. 243. 40. 93. 161. 35. 106.
      8. 34. 221. 10. 127. 201. 146. 87. 70. 146. 80. 163. 2. 195. 179.
      135. 49. 154. 172. 173. 135. 186. 119. 34. 221. 140. 174. 78. 155.
      167. 7. 104. 21. 55. 221. 151. 66. 140. 50. 94. 70. 200. 68. 131.
      92. 193. 180. 149. 33. 162. 46. 45. 159. 58. 243. 34. 252. 215.
      38. 202. 191. 7. 71. 108. 60. 181. 220. 245. 64. 140. 146. 117.
      116. 136. 240. 131. 89. 105. 13. 23. 119. 192. 42. 109. 175. 116.
      146. 98. 80. 243. 99. 0. 251. 73. 238. 106. 170. 121. 248. 203.
      108. 172. 170. 247. 0. 72. 240. 194. 168. 97. 40. 19. 71. 85. 111.
      99. 128. 97. 160. 98. 8. 179. 17. 21. 180. 24. 236. 64. 74. 9.
      180. 249. 44. 7. 188. 0. 48. 66. 43. 66. 172. 224. 229. 61. 119.
      13. 205. 71. 165. 99. 55. 165. 24. 242. 49. 72. 51. 137. 66. 104.
      74. 107. 106. 251. 53. 239. 219. 84. 56. 64. 26. 198. 42. 122. 48.
      252. 112. 169. 125. 217. 23. 171. 255. 181. 61. 46. 61. 214. 62.
      135. 147. 245. 17. 151. 109. 178. 194. 219. 223. 124. 251. 199.
      196. 143. 127. 112. 182. 156. 54. 186. 136. 84. 167. 178. 191.
      160. 57. 151. 243. 72. 26. 135. 247. 237. 16. 58. 79. 202. 35.
      249. 199. 117. 123. 224. 64. 143. 3. 193. 39. 77. 87. 42. 47. 36.
      60. 62. 178. 226. 216. 247. 103. 137. 59. 22. 86. 104. 46. 225.
      208. 205. 28. 36. 34. 101. 20. 72. 240. 3. 57.</_>
    <_>
      222. 94. 110. 254. 38. 210. 126. 240. 149. 206. 214. 166. 121.
      255. 179. 99. 126. 245. 191. 235. 232. 135. 33. 238. 243. 235.
      234. 129. 55. 187. 125. 115. 71. 137. 135. 23. 77. 148. 232. 0.
      239. 217. 67. 70. 240. 250. 93. 239. 164. 37. 122. 157. 135. 208.
      159. 225. 13. 58. 219. 194. 137. 39. 113. 132. 88. 177. 24. 160.
      57. 205. 80. 15. 170. 45. 172. 9. 191. 151. 66. 80. 134. 155. 253.
      80. 26. 11. 210. 49. 251. 197. 60. 123. 160. 2. 143. 91. 80. 9.
      174. 238. 141. 102. 117. 67. 228. 23. 207. 18. 209. 251. 59. 74.
      232. 246. 59. 129. 24. 129. 154. 0. 211. 167. 218. 5. 144. 123.
      253. 10. 164. 36. 202. 192. 156. 6. 211. 92. 64. 193. 246. 151.
      17. 141. 126. 64. 88. 140. 130. 124. 24. 167. 208. 130. 122. 41.
      160. 93. 237. 137. 248. 210. 144. 95. 43. 254. 36. 134. 175. 119.
      212. 2. 218. 66. 113. 235. 49. 65. 120. 123. 19. 203. 233. 139.
      16. 111. 225. 170. 238. 0. 21. 122. 241. 168. 54. 132. 233. 218.
      220. 1. 206. 232. 82. 179. 241. 10. 113. 104. 125. 9. 89. 202. 19.
      251. 58. 114. 78. 191. 61. 14. 205. 108. 245. 123. 114. 128. 198.
      158. 156. 151. 143. 248. 180. 167. 218. 191. 179. 51. 236. 248.
      79. 139. 163. 115. 234. 147. 118. 109. 139. 225. 47. 18. 95. 87.
      193. 125. 141. 143. 83. 192. 7. 168. 12. 96. 232. 102. 133. 80.
      218. 131. 185. 31. 48. 195. 106. 129. 59. 197. 73. 11. 23. 197.
      176. 120. 218. 72. 61. 24. 48. 10. 23. 76. 175. 190. 13. 244. 202.
      66. 196. 66. 206. 3. 240. 252. 55. 107. 200. 225. 59. 143. 13.
      167. 50. 169. 211. 123. 202. 25. 16. 127. 112. 70. 10. 144. 191.
      251. 51. 228. 185. 23. 190. 25. 87. 48. 188. 151. 168. 232. 231.
      59. 187. 145. 19. 152. 34. 245. 205. 247. 186. 194. 150. 4. 165.
      251. 64. 18. 154. 161. 96. 108. 57. 19. 40. 79. 126. 253. 159. 31.
      66. 88. 231. 159. 151. 148. 152. 154. 145. 64. 198. 245. 58. 193.
      136. 192. 175. 211. 154. 79. 102. 190. 7. 146. 206. 116. 133. 4.
      214. 167. 105. 207. 179. 197. 108. 225. 151. 239. 236. 143. 6.
      237. 114. 99. 234. 137. 55. 190. 60. 72. 146. 197. 44. 171. 28.
      215. 158. 237. 134. 21. 205. 3. 241. 90. 58. 65. 216. 19. 27. 227.
      126. 11. 91. 189. 235. 225. 138. 81. 20. 10. 189. 74. 66. 203.
      166. 154. 237. 212. 188. 133. 143. 21. 146. 1. 172. 158. 126. 206.
      196. 51. 251. 81. 70. 75. 218. 241. 167. 48. 222. 91. 20. 30. 189.
      94. 45. 117. 83. 65. 213. 31. 103. 184. 113. 224. 107. 76. 90.
      113. 21. 180. 24. 220. 18. 106. 193. 178. 248. 206. 47. 252. 5.
      36. 74. 171. 66. 180. 170. 161. 96. 202. 93. 213. 209. 105. 87. 5.
      117. 26. 42. 217. 124. 164. 216. 152. 147. 25. 30. 42. 122. 151.
      71. 93. 144. 127. 83. 14. 86. 238. 10. 86. 55. 168. 101. 103. 184.
      75. 84. 3. 89. 83. 12. 189. 52. 136. 253. 57. 147. 161. 180. 181.
      16. 222. 3. 95. 155. 131. 22. 104. 185. 131. 3. 154. 6. 155. 54.
      164. 184. 66. 140. 75. 89. 215. 140. 202. 54. 72. 239. 43. 19.
      149. 147. 141. 18. 247. 4. 54. 154. 194. 156. 12. 49. 149. 158.
      253. 50. 250. 203. 245. 158. 198. 153. 78. 156. 27. 44. 255. 111.
      40. 167. 123. 147. 211. 115. 7. 58. 243. 243. 85. 30. 187. 147.
      95. 167. 251. 77. 44. 156. 215. 168. 62. 68. 154. 115. 186. 174.
      84. 207. 115. 203. 255. 17. 198. 108. 46. 173. 192. 251. 170. 138.
      255. 85. 20. 138. 241. 74. 5. 17. 207. 78. 171. 180. 130. 190.
      229. 196. 4. 218. 194. 241. 234. 184. 64. 126. 43. 31. 239. 254.
      137. 4. 61. 224. 233. 174. 193. 53. 154. 185. 136. 87. 88. 255.
      245. 162. 78. 125. 144. 62. 242. 82. 102. 213. 255. 65. 107. 247.
      93. 63. 70. 193. 213. 177. 192. 229. 234. 111. 132. 172. 241. 133.
      115. 2. 159. 43. 185. 246. 229. 185. 119. 30. 77. 88. 167. 180.
      191. 32. 64. 239. 59. 19. 145. 146. 152. 16. 255. 237. 6. 190.
      194. 156. 72. 181. 251. 99. 189. 172. 87. 173. 157. 148. 167. 219.
      251. 182. 92. 162. 184. 215. 175. 193. 102. 122. 29. 181. 104.
      223. 176. 46. 94. 213. 123. 204. 92. 216. 15. 244. 117. 41. 226.
      172. 47. 71. 188. 66. 186. 185. 89. 211. 121. 89. 19. 217. 192.
      93. 123. 233. 35. 89. 58. 249. 201. 165. 60. 89. 251. 210. 34.
      114. 150. 243. 228. 124. 15. 218. 120. 27. 202. 176. 251. 124.
      125. 180. 48. 183. 209. 23. 165. 176. 107. 8. 222. 59. 30. 207.
      190. 149. 168. 81. 23. 66. 27. 214. 220. 44. 128. 26. 114. 133.
      192. 214. 226. 45. 163. 33. 66. 70. 115. 46. 192. 137. 139. 3.
      233. 210. 182. 202. 136. 22. 169. 40. 25. 24. 16. 99. 236. 5. 246.
      201. 80. 5. 74. 95. 2. 57. 159. 56. 228. 120. 184. 23. 169. 9.
      178. 48. 205. 211. 249. 138. 128. 63. 202. 116. 240. 230. 143. 5.
      219. 253. 255. 76. 174. 159. 191. 138. 88. 226. 227. 164. 199.
      201. 242. 234. 24. 58. 72. 75. 255. 47. 18. 213. 119. 146. 200.
      212. 44. 6. 203. 110. 138. 214. 131. 186. 193. 143. 89. 29. 227.
      12. 141. 113. 4. 111. 49. 151. 149. 146. 41. 12. 208. 42. 16. 175.
      231. 149. 158. 181. 241. 252. 75. 69. 238. 44. 66. 79. 184. 133.
      172. 146. 226. 243. 103. 137. 119. 92. 244. 125. 234. 73. 131.
      105. 189. 241. 234. 229. 148. 54. 187. 116. 33. 144. 141. 43. 190.
      148. 199. 207. 255. 22. 68. 217. 3. 113. 237. 56. 64. 93. 235. 19.
      239. 234. 139. 56. 191. 249. 39. 175. 136. 21. 218. 180. 248. 37.
      230. 237. 85. 236. 47. 207. 191. 82. 191. 180. 254. 211. 105. 221.
      43. 93. 198. 118. 190. 184. 244. 237. 10. 110. 14. 245. 180. 197.
      249. 214. 161. 181. 68. 103. 77. 20. 102. 207. 120. 84. 194. 255.
      2. 83. 125. 181. 100. 120. 228. 18. 238. 233. 183. 53. 142. 115.
      174. 161. 0. 119. 251. 112. 224. 130. 166. 239. 155. 252. 237.
      248. 207. 190. 83. 81. 18. 252. 238. 124. 75. 235. 251. 123. 145.
      50. 124. 75. 243. 29. 54. 223. 233. 148. 72. 165. 168. 220. 92.
      126. 254. 47. 22. 126. 240. 229. 142. 246. 39. 123. 255. 183. 115.
      254. 245. 189. 226. 236. 135. 42. 236. 242. 251. 227. 129. 63.
      183. 104. 83. 173. 122. 176. 113. 109. 61. 248. 218. 123. 255. 52.
      29. 142. 141. 223. 188. 159. 77. 247. 28. 134. 118. 250. 242. 207.
      223. 51. 238. 202. 133. 75. 211. 23. 1. 239. 205. 70. 54. 232. 73.
      68. 224. 219. 198. 81. 40. 191. 232. 126. 132. 50. 173. 133. 177.
      53. 200. 20. 46. 202. 132. 173. 235. 121. 148. 198. 214. 191. 178.
      170. 100. 189. 154. 190. 223. 19. 245. 220. 255. 105. 75. 135. 87.
      255. 147. 178. 69. 139. 98. 201. 131. 255. 222. 144. 113. 165.
      115. 163. 241. 245. 221. 237. 31. 254. 253. 127. 251. 242. 87.
      205. 254. 20. 164. 255. 215. 255. 231. 245. 251. 123. 223. 191.
      222. 207. 198. 95. 188. 235. 221. 9. 152. 189. 255. 44. 212. 57.
      25. 206. 216. 29. 100. 253. 215. 194. 98. 199. 56. 181. 24. 195.
      64. 250. 145. 205. 201. 175. 168. 22. 162. 21. 241. 129. 135. 16.
      171. 148. 131. 238. 239. 84. 1. 74. 82. 245. 99. 184. 96. 90. 10.
      2. 172. 122. 184. 65. 63. 236. 164. 166. 64. 52. 138. 240. 168.
      25. 181. 254. 121. 159. 235. 176. 78. 126. 65. 248. 2. 122. 248.
      14. 32. 251. 27. 90. 17. 23. 251. 87. 83. 95. 143. 23. 3. 237. 72.
      107. 138. 0. 248. 187. 177. 228. 205. 181. 71. 158. 207. 64. 19.
      180. 156. 96. 8. 160. 59. 51. 17. 66. 252. 50. 67. 69. 7. 30. 42.
      128. 88. 149. 251. 144. 73. 15. 238. 20. 198. 75. 112. 132. 64.
      195. 2. 115. 83. 49. 97. 120. 224. 27. 234. 105. 135. 24. 61. 241.
      169. 170. 16. 49. 187. 112. 40. 35. 32. 192. 89. 85. 59. 224. 75.
      95. 33. 240. 26. 8. 136. 246. 172. 123. 140. 2. 156. 150. 254.
      197. 209. 22. 24. 210. 111. 223. 140. 122. 132. 3. 133. 3. 168.
      28. 135. 136. 75. 30. 192. 88. 194. 180. 198. 48. 192. 92. 41.
      147. 149. 31. 9. 32. 157. 168. 1. 139. 176. 20. 8. 49. 248. 219.
      112. 198. 183. 171. 20. 56. 68. 191. 247. 134. 151. 237. 238. 90.
      219. 167. 231. 249. 133. 167. 69. 183. 194. 182. 119. 222. 139.
      174. 244. 171. 92. 33. 215. 108. 141. 86. 7. 207. 125. 68. 72. 93.
      71. 81. 72. 190. 96. 92. 136. 22. 111. 197. 178. 69. 157. 102. 41.
      160. 128. 61. 186. 216. 209. 37. 255. 247. 223. 252. 115. 174.
      254. 94. 251. 94. 82. 120. 232. 253. 100. 91. 126. 58. 106. 167.
      250. 239. 255. 62. 63. 239. 228. 151. 251. 248. 173. 143. 44. 244.
      241. 237. 63. 125. 83. 175. 190. 254. 214. 207. 239. 215. 255.
      239. 253. 255. 157. 185. 247. 99. 202. 158. 219. 231. 184. 159.
      253. 241. 245. 128. 124. 25. 185. 52. 167. 169. 150. 22. 233. 90.
      86. 149. 151. 33. 64. 95. 57. 23. 153. 163. 156. 81. 30. 237. 132.
      187. 228. 156. 144. 33. 185. 35. 90. 98. 200. 119. 212. 250. 112.
      221. 72. 84. 231. 40. 140. 182. 100. 238. 185. 151. 207. 197. 191.
      36. 255. 22. 60. 138. 139. 95. 141. 113. 221. 35. 18. 245. 212.
      116. 55. 88. 63. 27. 235. 144. 253. 12. 63. 182. 61. 215. 149.
      149. 181. 180. 207. 32. 204. 155. 94. 249. 246. 150. 132. 144. 95.
      213. 68. 111. 239. 6. 98. 75. 96. 212. 130. 195. 146. 83. 67. 57.
      107. 122. 229. 57. 171. 40. 133. 29. 14. 209. 171. 235. 0. 37.
      251. 48. 32. 2. 149. 42. 187. 242. 225. 185. 103. 30. 77. 93. 179.
      172. 254. 42. 64. 247. 59. 147. 145. 22. 152. 34. 255. 109. 37.
      186. 195. 149. 14. 165. 219. 35. 133. 40. 203. 244. 181. 174. 237.
      30. 9. 89. 66. 241. 248. 60. 160. 221. 27. 19. 157. 146. 58. 72.
      247. 45. 29. 174. 236. 221. 10. 249. 140. 144. 201. 43. 238. 20.
      199. 203. 101. 132. 64. 194. 2. 177. 83. 48. 96. 72. 186. 27. 201.
      75. 137. 49. 189. 225. 173. 138. 64. 48. 10. 176. 170. 226. 188.
      222. 245. 111. 237. 248. 235. 187. 191. 240. 59. 236. 255. 92.
      155. 255. 255. 255. 129. 34. 111. 146. 219. 159. 255. 95. 187.
      197. 104. 111. 139. 198. 230. 71. 159. 90. 131. 46. 236. 62. 179.
      203. 210. 105. 226. 168. 199. 123. 223. 106. 234. 32. 219. 207.
      255. 60. 34. 207. 204. 53. 131. 162. 172. 38. 164. 209. 176. 252.
      8. 204. 235. 139. 178. 144. 202. 188. 107. 93. 2. 207. 19. 31.
      181. 50. 106. 64. 202. 172. 158. 143. 126. 148. 232. 17. 128. 75.
      128. 244. 244. 116. 156. 248. 139. 219. 217. 54. 163. 111. 253.
      214. 110. 183. 213. 181. 29. 134. 120. 166. 193. 79. 123. 221.
      199. 199. 172. 84. 127. 1. 133. 11. 187. 244. 133. 172. 111. 84.
      9. 88. 82. 176. 96. 56. 65. 216. 10. 19. 141. 243. 184. 66. 255.
      36. 46. 186. 200. 28. 8. 177. 168. 10. 157. 8. 136. 223. 177. 154.
      75. 158. 5. 92. 183. 172. 238. 42. 64. 103. 11. 147. 149. 54. 10.
      22. 247. 108. 69. 154. 203. 148. 76. 189. 210. 213. 90. 223. 252.
      42. 34. 79. 176. 164. 206. 210. 230. 247. 231. 161. 115. 102. 245.
      61. 206. 201. 133. 163. 40. 240. 227. 226. 136. 60. 243. 36. 121.
      36. 233. 43. 218. 204. 197. 181. 206. 142. 20. 192. 10. 176. 220.
      117. 8. 201. 123. 19. 83. 66. 43. 122. 113. 69. 0. 159. 40. 209.
      89. 244. 234. 40. 47. 4. 196. 205. 59. 197. 111. 192. 166. 172.
      10. 163. 161. 65. 134. 72. 238. 66. 42. 72. 58. 88. 152. 189. 208.
      197. 61. 83. 126. 88. 140. 74. 244. 190. 178. 139. 240. 181. 199.
      191. 215. 134. 51. 172. 190. 106. 75. 163. 87. 251. 145. 54. 73.
      179. 225. 251. 119. 94. 75. 128. 84. 165. 94. 185. 77. 99. 238.
      116. 211. 203. 240. 85. 64. 208. 194. 115. 76. 177. 229. 88. 224.
      23. 239. 233. 178. 100. 191. 50. 105. 170. 128. 55. 191. 112. 252.
      146. 93. 47. 189. 6. 134. 175. 118. 164. 194. 210. 231. 245. 247.
      49. 75. 102. 119. 63. 231. 225. 205. 16. 108. 224. 162. 238. 128.
      45. 113. 33. 185. 102. 4. 172. 190. 141. 116. 220. 9. 198. 215.
      133. 19. 225. 108. 59. 235. 201. 195. 187. 167. 172. 103. 127.
      160. 71. 123. 222. 29. 149. 127. 252. 70. 168. 236. 29. 249. 84.
      199. 165. 239. 28. 18. 112. 19. 181. 153. 56. 1. 217. 11. 3. 97.
      98. 190. 18. 63. 101. 139. 254. 100. 93. 24. 209. 170. 178. 0.
      120. 169. 100. 163. 249. 66. 85. 13. 117. 55. 9. 9. 190. 8. 250.
      137. 135. 165. 154. 182. 0. 215. 87. 221. 162. 227. 119. 141. 116.
      210. 3. 135. 8. 171. 148. 133. 174. 239. 30. 9. 216. 70. 165. 74.
      56. 192. 220. 27. 147. 145. 86. 170. 90. 253. 173. 213. 186. 72.
      24. 10. 185. 136. 59. 145. 247. 237. 189. 95. 255. 249. 63. 124.
      247. 47. 78. 188. 55. 228. 254. 157. 255. 231. 141. 179. 249. 217.
      247. 89. 143. 159. 31. 62. 119. 223. 41. 160. 113. 74. 81. 205.
      99. 88. 115. 65. 109. 8. 56. 215. 76. 52. 88. 152. 18. 24. 19. 58.
      248. 119. 127. 156. 0. 106. 211. 139. 230. 228. 24. 133. 4. 187.
      157. 197. 132. 175. 134. 21. 137. 17. 231. 122. 40. 193. 201. 3.
      170. 129. 94. 9. 91. 149. 169. 247. 222. 85. 144. 8. 189. 10. 47.
      61. 109. 225. 189. 255. 90. 146. 207. 249. 158. 255. 159. 61. 151.
      165. 207. 243. 223. 125. 191. 248. 117. 254. 175. 221. 175. 246.
      158. 205. 92. 119. 137. 221. 123. 125. 112. 158. 127. 119. 253. 8.
      126. 96. 63. 151. 164. 113. 230. 58. 21. 72. 225. 184. 48. 239.
      231. 249. 38. 128. 74. 144. 227. 187. 160. 133. 40. 251. 156. 229.
      193. 111. 22. 17. 200. 19. 177. 122. 56. 64. 217. 27. 19. 145. 58.
      10. 83. 55. 233. 134. 158. 73. 144. 72. 244. 138. 3. 221. 42. 140.
      212. 151. 174. 231. 204. 65. 88. 135. 48. 220. 54. 96. 236. 43.
      19. 197. 215. 187. 20. 255. 97. 45. 142. 192. 29. 8. 249. 216.
      131. 195. 65. 221. 36. 13. 74. 126. 21. 72. 80. 198. 56. 13. 52.
      128. 158. 145. 31. 206. 233. 164. 65. 255. 0. 24. 32. 128. 61.
      152. 0. 25. 189. 121. 123. 68. 66. 207. 119. 240. 113. 228. 100.
      12. 51. 87. 135. 52. 60. 252. 66. 104. 233. 178. 52. 12. 119. 136.
      33. 0. 107. 176. 102. 240. 120. 112. 26. 232. 41. 237. 80. 80.
      173. 8. 228. 9. 63. 159. 33. 216. 160. 185. 221. 2. 14. 7. 146.
      145. 211. 253. 18. 59. 90. 3. 107. 27. 71. 186. 126. 243. 238.
      182. 255. 242. 239. 222. 255. 166. 217. 238. 246. 98. 239. 255.
      127. 207. 212. 251. 239. 226. 94. 127. 239. 192. 71. 227. 119.
      229. 184. 80. 122. 233. 103. 95. 114. 80. 109. 8. 116. 40. 31. 31.
      32. 49. 254. 153. 151. 106. 200. 180. 48. 142. 247. 217. 32. 161.
      118. 138. 70. 179. 58. 187. 162. 204. 125. 213. 147. 91. 151. 77.
      252. 47. 42. 220. 166. 180. 220. 187. 215. 129. 158. 43. 242. 147.
      115. 125. 32. 187. 83. 12. 254. 247. 135. 149. 231. 223. 214. 86.
      175. 255. 86. 194. 90. 246. 120. 252. 189. 229. 127. 123. 50. 239.
      241. 216. 63. 239. 61. 46. 207. 198. 191. 124. 241. 245. 196. 21.
      209. 197. 182. 2. 39. 17. 16. 161. 67. 246. 83. 49. 152. 198. 86.
      86. 19. 56. 49. 208. 85. 130. 44. 40. 132. 68. 174. 234. 176. 176.
      242. 164. 228. 20. 205. 96. 221. 175. 147. 246. 130. 155. 64. 44.
      86. 27. 201. 199. 105. 165. 124. 79. 247. 194. 59. 18. 221. 63.
      197. 124. 214. 78. 101. 113. 76. 71. 124. 15. 66. 184. 67. 240.
      181. 76. 83. 81. 217. 55. 24. 196. 108. 126. 201. 114. 221. 60.
      126. 137. 37. 52. 109. 187. 90. 0. 134. 145. 61. 249. 236. 141.
      180. 185. 207. 59. 49. 122. 158. 25. 60. 41. 143. 17. 127. 35.
      242. 60. 91. 215. 79. 26. 107. 246. 92. 8. 193. 179. 146. 207. 46.
      174. 30. 199. 155. 232. 132. 68. 221. 135. 241. 78. 58. 65. 252.
      177. 31. 231. 238. 135. 127. 191. 241. 161. 170. 153. 53. 11. 61.
      90. 83. 16. 198. 165. 18. 2. 8. 34. 61. 225. 194. 227. 95. 54.
      130. 244. 54. 213. 125. 165. 29. 217. 133. 78. 144. 166. 218. 130.
      44. 36. 41. 84. 15. 153. 21. 193. 56. 151. 74. 176. 141. 248. 158.
      228. 158. 23. 161. 229. 70. 48. 222. 120. 153. 137. 81. 220. 174.
      216. 161. 214. 30. 143. 8. 53. 15. 55. 254. 225. 244. 30. 254.
      221. 175. 221. 183. 183. 221. 47. 190. 99. 239. 215. 223. 245.
      246. 251. 105. 200. 254. 223. 175. 199. 135. 254. 245. 209. 134.
      205. 216. 243. 172. 40. 238. 226. 205. 50. 184. 18. 221. 43. 125.
      75. 235. 195. 27. 235. 112. 53. 72. 226. 180. 156. 206. 36. 149.
      251. 97. 128. 208. 12. 205. 245. 160. 106. 77. 51. 48. 226. 154.
      240. 247. 39. 129. 107. 3. 246. 125. 34. 121. 220. 197. 10. 228.
      163. 255. 144. 164. 240. 133. 57. 46. 28. 187. 254. 87. 229. 186.
      82. 142. 12. 125. 3. 60. 223. 33. 200. 254. 185. 151. 131. 2. 178.
      18. 250. 215. 197. 170. 139. 149. 107. 61. 211.</_>
    <_>
      101. 109. 12. 71. 197. 47. 102. 184. 105. 234. 107. 76. 210. 97.
      31. 48. 153. 196. 108. 110. 205. 176. 217. 46. 39. 190. 5. 20.
      201. 123. 90. 6. 89. 68. 156. 190. 45. 52. 70. 172. 196. 90. 139.
      5. 247. 114. 43. 203. 209. 195. 108. 79. 77. 71. 219. 43. 224.
      247. 254. 25. 24. 123. 184. 26. 216. 156. 158. 254. 171. 104. 21.
      167. 190. 31. 166. 48. 255. 247. 104. 91. 167. 119. 237. 0. 56.
      77. 139. 35. 217. 227. 118. 91. 128. 112. 165. 43. 116. 211. 144.
      170. 173. 4. 70. 156. 3. 185. 169. 109. 66. 227. 73. 210. 217.
      196. 236. 210. 26. 3. 203. 32. 186. 244. 165. 127. 184. 59. 250.
      19. 165. 236. 6. 19. 92. 169. 162. 234. 62. 50. 104. 74. 38. 233.
      89. 0. 185. 202. 67. 93. 34. 126. 74. 55. 60. 6. 13. 96. 193. 88.
      83. 136. 214. 172. 150. 178. 137. 161. 20. 199. 191. 183. 128. 25.
      236. 234. 110. 223. 225. 99. 235. 145. 62. 79. 138. 243. 153. 214.
      95. 127. 128. 84. 175. 14. 166. 100. 26. 170. 219. 193. 151. 73.
      138. 164. 193. 26. 36. 223. 105. 16. 74. 249. 91. 115. 34. 71.
      218. 58. 53. 4. 13. 59. 209. 27. 167. 162. 129. 169. 70. 17. 132.
      139. 224. 1. 118. 32. 66. 82. 211. 8. 16. 224. 120. 44. 34. 93.
      150. 188. 69. 20. 4. 42. 0. 64. 109. 136. 248. 132. 100. 134. 148.
      185. 189. 41. 86. 187. 23. 59. 177. 249. 199. 99. 72. 223. 217.
      212. 236. 48. 62. 70. 203. 147. 158. 214. 101. 255. 154. 205. 204.
      3. 77. 221. 17. 103. 180. 14. 110. 188. 120. 232. 123. 68. 215.
      113. 153. 112. 148. 78. 116. 110. 225. 176. 217. 110. 228. 255.
      39. 132. 72. 243. 195. 161. 201. 247. 175. 86. 249. 95. 55. 253.
      242. 220. 118. 236. 121. 245. 138. 183. 21. 94. 228. 110. 231.
      207. 191. 45. 107. 107. 101. 141. 74. 182. 142. 125. 86. 159. 142.
      191. 178. 2. 31. 189. 190. 134. 70. 165. 245. 231. 43. 75. 151.
      119. 189. 167. 226. 192. 27. 47. 232. 167. 239. 129. 164. 242.
      133. 91. 212. 141. 150. 186. 153. 234. 38. 239. 190. 59. 202. 29.
      230. 242. 40. 209. 177. 199. 104. 147. 59. 91. 154. 119. 184. 166.
      95. 118. 152. 112. 171. 10. 45. 230. 5. 103. 148. 14. 102. 184.
      116. 170. 107. 72. 211. 97. 153. 178. 25. 68. 108. 110. 121. 176.
      89. 46. 229. 239. 101. 20. 72. 251. 210. 160. 236. 223. 148. 127.
      248. 107. 23. 191. 22. 127. 204. 189. 247. 119. 139. 31. 85. 82.
      231. 26. 51. 222. 107. 63. 110. 247. 117. 240. 154. 249. 134. 251.
      231. 133. 12. 65. 153. 62. 76. 175. 219. 51. 175. 24. 82. 114. 30.
      243. 193. 198. 120. 60. 255. 79. 219. 87. 171. 187. 213. 126. 152.
      64. 218. 6. 238. 171. 225. 132. 200. 0. 79. 152. 131. 190. 132.
      205. 73. 231. 67. 223. 77. 212. 237. 214. 106. 67. 203. 240. 158.
      82. 205. 255. 166. 245. 22. 97. 110. 238. 132. 182. 141. 4. 79.
      190. 131. 190. 138. 141. 201. 233. 83. 79. 205. 231. 249. 223.
      188. 67. 223. 176. 236. 54. 223. 252. 158. 255. 144. 94. 77. 106.
      20. 82. 169. 60. 68. 56. 105. 138. 190. 72. 234. 96. 141. 188.
      148. 114. 236. 106. 197. 96. 203. 232. 7. 218. 69. 2. 66. 247. 74.
      37. 100. 120. 188. 114. 232. 13. 112. 148. 43. 186. 52. 104. 182.
      55. 65. 58. 133. 215. 93. 16. 0. 64. 154. 32. 207. 219. 117. 48.
      200. 114. 3. 27. 40. 164. 92. 104. 233. 91. 81. 175. 11. 57. 188.
      56. 31. 51. 66. 179. 139. 19. 228. 48. 90. 106. 195. 21. 203. 211.
      117. 125. 114. 136. 206. 11. 217. 12. 14. 60. 138. 240. 24. 2.
      184. 82. 130. 157. 175. 198. 35. 219. 163. 167. 236. 132. 62. 79.
      150. 51. 210. 227. 122. 153. 40. 69. 43. 94. 33. 224. 88. 67. 118.
      155. 240. 117. 121. 105. 119. 120. 74. 24. 222. 180. 63. 142. 86.
      40. 197. 248. 109. 212. 46. 91. 20. 103. 111. 142. 202. 141. 211.
      36. 15. 50. 170. 232. 48. 134. 184. 83. 162. 253. 135. 166. 6. 59.
      167. 103. 108. 21. 45. 205. 134. 66. 144. 242. 90. 219. 200. 80.
      139. 95. 92. 48. 55. 248. 43. 236. 49. 80. 173. 94. 230. 40. 254.
      215. 1. 124. 167. 53. 125. 2. 1. 5. 178. 93. 209. 243. 98. 138.
      34. 3. 7. 115. 210. 202. 173. 188. 40. 64. 93. 174. 179. 86. 134.
      185. 247. 255. 2. 91. 199. 245. 253. 133. 108. 79. 227. 33. 211.
      227. 251. 187. 32. 112. 22. 123. 18. 159. 42. 169. 182. 195. 190.
      231. 28. 69. 88. 167. 172. 239. 50. 64. 255. 59. 147. 133. 210.
      152. 0. 255. 172. 5. 174. 195. 21. 10. 181. 219. 194. 179. 115.
      76. 107. 120. 49. 72. 235. 48. 123. 250. 72. 150. 140. 246. 54.
      189. 230. 0. 17. 51. 174. 209. 22. 48. 3. 175. 103. 2. 39. 165.
      57. 207. 99. 206. 124. 146. 207. 252. 85. 72. 252. 194. 115. 201.
      181. 100. 88. 234. 22. 238. 201. 178. 109. 191. 118. 44. 166. 136.
      63. 186. 112. 236. 228. 180. 119. 81. 91. 13. 97. 216. 123. 180.
      102. 28. 118. 209. 204. 53. 51. 76. 98. 56. 35. 114. 186. 88. 93.
      152. 5. 46. 193. 0. 71. 166. 212. 254. 16. 59. 170. 232. 39. 206.
      62. 31. 168. 52. 142. 243. 75. 157. 179. 74. 206. 18. 115. 101.
      202. 115. 188. 134. 54. 127. 216. 81. 143. 17. 126. 209. 226. 28.
      203. 84. 87. 252. 179. 222. 172. 15. 74. 252. 87. 182. 181. 245.
      245. 231. 220. 67. 190. 203. 155. 119. 69. 159. 99. 119. 46. 223.
      108. 52. 51. 104. 33. 237. 113. 17. 233. 72. 127. 8. 222. 247. 1.
      188. 148. 52. 124. 40. 9. 49. 178. 64. 215. 250. 64. 30. 194. 226.
      71. 51. 212. 53. 61. 115. 136. 111. 81. 24. 224. 254. 163. 24.
      215. 117. 73. 59. 129. 84. 108. 122. 57. 229. 251. 4. 201. 195.
      97. 84. 192. 33. 71. 98. 104. 165. 57. 109. 253. 77. 71. 47. 99.
      41. 236. 8. 242. 113. 8. 48. 152. 86. 104. 40. 89. 42. 243. 63.
      111. 191. 20. 120. 64. 10. 198. 42. 145. 244. 57. 121. 144. 207.
      19. 167. 116. 67. 226. 16. 215. 23. 8. 48. 145. 17. 92. 48. 59.
      172. 113. 63. 225. 134. 48. 80. 232. 0. 135. 50. 2. 157. 42. 169.
      148. 199. 190. 231. 12. 69. 216. 7. 180. 190. 50. 64. 216. 43.
      147. 133. 82. 184. 81. 255. 169. 53. 142. 195. 29. 10. 177. 218.
      109. 117. 212. 71. 160. 30. 70. 184. 97. 162. 43. 76. 211. 112.
      137. 182. 18. 68. 108. 106. 201. 240. 253. 10. 166. 254. 101. 20.
      106. 243. 66. 36. 252. 172. 188. 114. 141. 253. 87. 203. 251. 191.
      165. 24. 238. 241. 76. 187. 129. 214. 108. 26. 58. 111. 250. 51.
      251. 223. 85. 127. 194. 113. 198. 34. 227. 113. 90. 84. 235. 223.
      180. 196. 251. 227. 36. 56. 90. 248. 237. 191. 178. 117. 242. 96.
      53. 231. 178. 66. 23. 27. 85. 43. 203. 80. 203. 151. 221. 188.
      152. 51. 155. 172. 102. 190. 114. 250. 135. 92. 223. 243. 75. 81.
      49. 78. 104. 58. 119. 69. 155. 55. 254. 231. 53. 92. 170. 209.
      139. 2. 232. 143. 0. 190. 205. 4. 79. 191. 21. 22. 205. 21. 226.
      99. 42. 85. 89. 194. 42. 110. 120. 14. 91. 183. 245. 182. 212. 28.
      50. 250. 240. 104. 228. 253. 148. 54. 169. 109. 6. 174. 250. 186.
      168. 56. 230. 112. 73. 155. 137. 70. 104. 66. 107. 111. 203. 55.
      189. 146. 85. 63. 72. 123. 202. 10. 237. 169. 165. 87. 237. 75.
      69. 141. 211. 178. 135. 24. 210. 117. 212. 175. 9. 102. 120. 26.
      113. 120. 251. 160. 111. 90. 197. 118. 194. 124. 212. 102. 208.
      140. 31. 119. 138. 232. 21. 39. 180. 23. 166. 24. 247. 55. 0. 91.
      163. 119. 108. 0. 56. 205. 35. 39. 217. 227. 114. 81. 160. 64.
      135. 43. 164. 236. 218. 82. 211. 237. 113. 199. 51. 151. 100. 24.
      18. 215. 72. 29. 49. 250. 194. 24. 50. 222. 186. 98. 111. 134. 21.
      107. 194. 192. 230. 162. 59. 221. 99. 222. 214. 211. 239. 245.
      213. 72. 254. 230. 121. 239. 180. 100. 126. 250. 23. 234. 201.
      187. 62. 255. 114. 45. 167. 136. 63. 186. 244. 249. 201. 182. 27.
      16. 184. 189. 17. 183. 62. 111. 175. 253. 150. 150. 202. 176. 151.
      22. 234. 20. 183. 77. 245. 7. 188. 21. 49. 122. 72. 76. 131. 117.
      53. 170. 174. 169. 132. 15. 203. 223. 22. 245. 207. 23. 211. 169.
      18. 8. 217. 78. 115. 29. 156. 250. 91. 58. 205. 7. 253. 100. 233.
      120. 186. 210. 74. 178. 151. 190. 58. 193. 27. 121. 190. 29. 129.
      253. 236. 231. 234. 82. 135. 115. 239. 1. 18. 73. 202. 115. 232.
      182. 43. 251. 144. 34. 135. 243. 129. 61. 30. 73. 48. 142. 107.
      54. 164. 8. 230. 64. 183. 19. 128. 49. 6. 50. 92. 124. 187. 137.
      17. 125. 239. 169. 32. 64. 104. 128. 34. 57. 98. 189. 120. 90.
      235. 217. 18. 235. 235. 25. 189. 56. 46. 255. 100. 48. 131. 115.
      236. 0. 22. 107. 202. 119. 27. 159. 53. 251. 210. 64. 207. 135.
      180. 205. 206. 31. 214. 42. 230. 236. 86. 162. 235. 146. 99. 96.
      25. 65. 121. 238. 98. 107. 120. 242. 79. 47. 60. 38. 197. 4. 229.
      123. 240. 136. 208. 166. 31. 186. 138. 200. 81. 23. 180. 23. 131.
      49. 215. 151. 8. 91. 167. 151. 109. 144. 122. 77. 131. 7. 217.
      227. 118. 89. 160. 0. 167. 35. 168. 60. 115. 73. 99. 123. 167. 90.
      127. 106. 120. 234. 40. 149. 133. 180. 54. 94. 198. 66. 131. 240.
      164. 243. 55. 28. 33. 162. 103. 209. 71. 189. 212. 124. 159. 116.
      8. 108. 85. 130. 176. 190. 166. 56. 215. 119. 73. 59. 129. 247.
      108. 2. 40. 71. 187. 2. 211. 163. 117. 29. 192. 113. 7. 35. 172.
      191. 158. 63. 178. 175. 55. 191. 30. 127. 78. 253. 247. 229. 139.
      25. 151. 90. 255. 7. 247. 252. 105. 63. 236. 247. 117. 150. 200.
      125. 143. 91. 16. 44. 123. 114. 66. 248. 66. 66. 225. 2. 171. 40.
      51. 23. 133. 184. 171. 179. 204. 2. 9. 239. 160. 111. 19. 198. 16.
      3. 97. 67. 38. 40. 171. 159. 107. 140. 116. 151. 219. 252. 23. 76.
      124. 239. 48. 221. 178. 148. 92. 136. 151. 109. 199. 186. 36. 191.
      114. 13. 160. 236. 127. 142. 118. 249. 202. 172. 156. 50. 169.
      189. 56. 135. 191. 63. 166. 157. 142. 170. 78. 155. 167. 103. 237.
      149. 54. 77. 154. 227. 154. 211. 94. 127. 202. 68. 139. 94. 199.
      190. 133. 19. 170. 140. 173. 182. 170. 123. 18. 245. 164. 166.
      196. 127. 135. 103. 124. 85. 183. 76. 239. 113. 12. 50. 126. 194.
      140. 1. 131. 93. 128. 101. 95. 85. 214. 139. 174. 109. 250. 160.
      112. 66. 117. 234. 53. 1. 186. 125. 66. 240. 96. 242. 12. 92. 60.
      138. 7. 32. 193. 56. 227. 136. 16. 205. 11. 188. 180. 199. 207.
      231. 132. 76. 220. 2. 53. 139. 48. 64. 104. 43. 31. 201. 91. 139.
      32. 189. 224. 165. 174. 128. 53. 24. 180. 233. 166. 97. 172. 82.
      205. 93. 214. 200. 203. 246. 165. 11. 66. 216. 127. 43. 201. 192.
      115. 119. 76. 103. 250. 176. 19. 24. 197. 63. 209. 123. 222. 198.
      42. 221. 34. 172. 85. 199. 190. 231. 133. 68. 216. 135. 41. 140.
      54. 64. 204. 43. 147. 197. 207. 171. 80. 255. 115. 117. 142. 139.
      29. 28. 252. 218. 33. 61. 115. 65. 209. 255. 163. 119. 124. 232.
      120. 64. 178. 21. 132. 180. 152. 58. 82. 120. 17. 184. 49. 110.
      47. 156. 4. 66. 73. 66. 67. 189. 108. 108. 183. 87. 205. 255. 229.
      134. 219. 183. 46. 8. 98. 177. 85. 175. 137. 118. 104. 8. 32. 248.
      251. 168. 47. 26. 85. 18. 194. 120. 84. 110. 207. 254. 178. 18.
      186. 188. 191. 183. 186. 219. 78. 244. 252. 246. 223. 253. 183.
      123. 249. 151. 183. 77. 170. 126. 44. 63. 127. 202. 138. 117. 171.
      245. 87. 33. 147. 130. 153. 70. 110. 136. 234. 249. 139. 64. 212.
      242. 77. 254. 241. 197. 124. 250. 29. 67. 185. 96. 185. 188. 143.
      68. 136. 115. 163. 36. 29. 180. 156. 225. 149. 63. 64. 155. 55.
      187. 15. 80. 215. 49. 73. 252. 145. 14. 120. 60. 59. 212. 217.
      150. 139. 223. 21. 86. 170. 237. 216. 52. 207. 180. 150. 146. 171.
      244. 60. 135. 191. 91. 2. 81. 140. 246. 78. 223. 167. 103. 251.
      149. 55. 77. 154. 242. 158. 87. 223. 239. 138. 84. 171. 15. 212.
      5. 159. 31. 138. 162. 38. 143. 188. 135. 235. 144. 229. 226. 8.
      218. 115. 247. 106. 146. 49. 205. 15. 111. 184. 166. 94. 65. 160.
      115. 173. 0. 117. 140. 136. 165. 172. 14. 78. 191. 18. 230. 158.
      143. 215. 40. 91. 66. 209. 197. 61. 191. 236. 80. 221. 42. 232.
      39. 255. 180. 172. 124. 152. 82. 220. 44. 190. 242. 138. 120. 81.
      146. 242. 151. 166. 48. 223. 255. 67. 91. 163. 247. 237. 18. 56.
      101. 171. 34. 219. 227. 119. 89. 160. 97. 39. 35. 237. 113. 241.
      66. 233. 77. 103. 157. 123. 234. 100. 8. 90. 151. 77. 60. 149.
      220. 118. 122. 203. 118. 250. 82. 119. 190. 85. 46. 195. 242. 198.
      243. 229. 103. 81. 103. 180. 14. 79. 184. 113. 232. 251. 76. 211.
      97. 153. 48. 20. 196. 76. 110. 233. 176. 205. 46. 228. 252. 37.
      148. 106. 243. 82. 33. 213. 66. 156. 165. 40. 10. 76. 9. 56. 162.
      131. 1. 247. 99. 73. 91. 18. 197. 108. 110. 44. 68. 193. 8. 228.
      227. 103. 16. 32. 242. 9. 0. 44. 140. 140. 189. 153. 67. 167. 174.
      198. 182. 198. 2. 225. 112. 3. 203. 73. 70. 42. 171. 121. 218. 95.
      63. 172. 167. 223. 17. 177. 120. 156. 234. 220. 119. 24. 179. 154.
      236. 55. 222. 190. 251. 162. 117. 140. 198. 74. 223. 103. 79. 202.
      182. 115. 5. 138. 114. 188. 161. 63. 111. 184. 85. 175. 209. 100.
      228. 145. 49. 202. 136. 166. 207. 114. 51. 226. 72. 150. 240. 73.
      210. 57. 204. 98. 57. 99. 126. 201. 67. 60. 36. 23. 76. 233. 16.
      163. 136. 196. 57. 187. 102. 48. 110. 19. 16. 104. 234. 167. 40.
      214. 247. 65. 58. 144. 117. 124. 74. 9. 240. 177. 74. 209. 172.
      33. 2. 192. 115. 70. 51. 198. 172. 197. 159. 206. 98. 166. 239.
      94. 179. 195. 146. 96. 232. 85. 207. 121. 238. 106. 139. 50. 255.
      207. 251. 60. 38. 223. 4. 229. 121. 241. 132. 51. 207. 110. 190.
      62. 128. 207. 119. 132. 64. 222. 227. 49. 204. 178. 97. 78. 162.
      31. 205. 234. 171. 38. 189. 240. 233. 174. 136. 53. 152. 184. 249.
      0. 140. 1. 185. 93. 229. 161. 71. 158. 17. 64. 19. 180. 149. 32.
      72. 201. 59. 19. 17. 50. 158. 82. 87. 77. 22. 154. 104. 144. 8.
      53. 170. 64. 188. 185. 102. 56. 72. 87. 155. 226. 49. 44. 8. 151.
      183. 72. 50. 3. 214. 108. 8. 11. 105. 186. 49. 233. 133. 37. 109.
      96. 194. 134. 42. 2. 157. 14. 175. 180. 199. 63. 39. 12. 77. 90.
      135. 244. 103. 34. 64. 244. 35. 27. 165. 82. 152. 17. 253. 237.
      164. 174. 192. 28. 10. 181. 91. 205. 255. 172. 30. 155. 63. 7.
      174. 242. 214. 173. 60. 243. 224. 203. 119. 17. 70. 232. 122. 246.
      64. 255. 63. 105. 39. 101. 61. 234. 115. 142. 124. 48. 205. 42.
      188. 156. 197. 222. 247. 132. 68. 220. 135. 49. 172. 50. 64. 72.
      162. 19. 205. 223. 137. 54. 189. 227. 167. 190. 201. 29. 24. 244.
      218. 192. 252. 191. 244. 106. 72. 85. 103. 169. 154. 160. 56. 62.
      151. 64. 59. 130. 245. 125. 2. 97. 111. 178. 65. 209. 242. 116.
      58. 64. 112. 135. 43. 60. 111. 104. 70. 214. 83. 207. 249. 81.
      230. 253. 171. 83. 109. 159. 52. 126. 220. 149. 238. 232. 178.
      109. 174. 122. 205. 165. 173. 103. 255. 246. 240. 130. 155. 34.
      185. 247. 145. 184. 239. 158. 29. 80. 183. 172. 136. 62. 65. 239.
      11. 151. 21. 246. 188. 6. 247. 44. 80. 154. 203. 20. 12. 189. 207.
      37. 121. 23. 74. 237. 221. 144. 89. 203. 232. 241. 108. 114. 216.
      228. 180. 200. 60. 242. 18. 205. 107. 250. 144. 31. 88. 5. 58. 91.
      10. 250. 151. 6. 156. 186. 155. 247. 245. 186. 196. 31. 13. 83.
      51. 236. 254. 110. 72. 255. 123. 151. 145. 54. 220. 26. 255. 47.
      87. 159. 195. 148. 78. 165. 223. 134. 148. 23. 155. 214. 165. 185.
      218. 158. 27. 81. 87. 212. 254. 40. 73. 247. 27. 19. 145. 179.
      212. 26. 247. 13. 22. 219. 230. 152. 73. 161. 179. 77. 164. 149.
      87. 233. 92. 109. 185. 43. 243. 47. 24. 220. 119. 72. 246. 21.
      212. 120. 58. 83. 72. 251. 208. 143. 222. 69. 126. 130. 226. 130.
      32. 7. 142. 231. 159. 229. 178. 174. 167. 156. 87. 90. 247. 232.
      232. 190. 237. 239. 107. 179. 159. 181. 220. 47. 238. 44. 62. 222.
      194. 143. 253. 185. 221. 228. 238. 148. 30. 169. 169. 20. 174.
      159. 183. 161. 121. 230. 224. 73. 159. 129. 115. 232. 18. 50. 109.
      202. 51. 137. 18. 85. 59. 208. 93. 143. 14. 64. 177. 188. 103. 32.
      14. 125. 61. 33. 58. 55. 104. 215. 55. 8. 114. 134. 87. 125. 10.
      72. 216. 217. 0. 195. 219. 116. 132. 8. 242. 131. 43. 51. 221.
      107. 159. 148. 149. 174. 231. 84. 68. 88. 71. 49. 248. 54. 96.
      216. 43. 19. 197. 214. 186. 36. 189. 43. 109. 174. 193. 21. 30.
      249. 204. 157. 120. 189. 101. 44. 78. 79. 152. 224. 234. 162. 72.
      215. 17. 81. 43. 132. 84. 92. 107. 233. 229. 249. 40. 225. 137.
      101. 52. 104. 115. 67. 35.</_>
    <_>
      53. 174. 206. 31. 220. 63. 238. 248. 118. 175. 251. 222. 99. 232.
      158. 128. 121. 238. 98. 175. 252. 247. 223. 63. 60. 47. 245. 68.
      105. 234. 250. 132. 194. 188. 151. 92. 249. 221. 52. 231. 191. 31.
      100. 24. 172. 183. 36. 191. 129. 59. 226. 0. 50. 125. 178. 119.
      63. 58. 84. 107. 194. 68. 135. 255. 109. 252. 253. 87. 233. 93.
      85. 177. 123. 254. 52. 12. 250. 61. 214. 183. 141. 214. 212. 10.
      237. 122. 251. 108. 111. 219. 117. 51. 74. 246. 206. 255. 69. 166.
      215. 95. 184. 47. 103. 155. 127. 179. 227. 92. 83. 227. 140. 126.
      51. 198. 108. 56. 59. 233. 251. 95. 62. 190. 85. 84. 232. 240.
      226. 32. 207. 116. 132. 55. 137. 44. 30. 152. 179. 243. 129. 93.
      223. 104. 75. 155. 149. 199. 248. 55. 191. 71. 219. 34. 137. 83.
      93. 126. 202. 117. 139. 84. 221. 119. 228. 38. 168. 46. 79. 188.
      161. 190. 139. 237. 95. 99. 217. 95. 55. 198. 125. 238. 248. 69.
      143. 42. 248. 234. 101. 148. 170. 247. 130. 49. 35. 252. 245. 95.
      104. 91. 165. 206. 126. 251. 176. 104. 240. 252. 220. 191. 155.
      94. 122. 25. 227. 107. 239. 113. 45. 30. 117. 190. 213. 252. 199.
      237. 142. 159. 83. 218. 243. 217. 178. 192. 191. 13. 116. 34. 44.
      215. 165. 212. 247. 59. 134. 82. 55. 155. 42. 255. 62. 247. 50.
      203. 82. 7. 47. 191. 109. 181. 152. 50. 137. 61. 86. 137. 115.
      247. 173. 28. 198. 96. 75. 154. 145. 198. 232. 50. 31. 99. 251.
      18. 251. 215. 85. 127. 202. 115. 202. 70. 212. 230. 156. 37. 168.
      46. 71. 184. 114. 190. 167. 93. 215. 99. 75. 27. 21. 196. 108.
      106. 56. 69. 203. 8. 232. 227. 101. 52. 232. 243. 134. 81. 45.
      247. 65. 69. 210. 43. 102. 249. 119. 224. 123. 238. 195. 97. 156.
      148. 123. 206. 70. 42. 153. 176. 93. 30. 46. 140. 37. 36. 239.
      251. 194. 180. 232. 224. 156. 109. 45. 111. 87. 152. 103. 42. 175.
      24. 215. 51. 8. 18. 152. 196. 108. 42. 72. 35. 217. 1. 199. 255.
      97. 53. 66. 250. 66. 35. 2. 174. 158. 187. 233. 225. 48. 79. 158.
      31. 72. 49. 172. 243. 96. 200. 193. 59. 171. 17. 50. 92. 66. 211.
      141. 150. 90. 107. 144. 72. 173. 139. 252. 118. 156. 54. 137. 44.
      84. 154. 178. 242. 163. 93. 199. 99. 75. 27. 149. 199. 236. 54.
      44. 71. 219. 32. 217. 243. 85. 61. 202. 117. 138. 18. 222. 101.
      30. 19. 25. 28. 188. 200. 184. 182. 165. 157. 204. 198. 79. 155.
      164. 85. 200. 246. 98. 71. 154. 92. 169. 209. 71. 63. 66. 53. 43.
      180. 57. 133. 122. 45. 84. 47. 231. 248. 86. 6. 254. 7. 115. 233.
      59. 64. 120. 206. 6. 238. 232. 178. 93. 31. 116. 239. 39. 4. 123.
      250. 104. 202. 109. 53. 245. 69. 248. 126. 105. 27. 107. 248. 63.
      104. 222. 55. 213. 182. 23. 68. 124. 60. 177. 112. 233. 72. 78.
      186. 101. 180. 194. 226. 70. 117. 213. 151. 69. 14. 26. 38. 79.
      184. 32. 192. 203. 196. 81. 102. 152. 118. 116. 196. 120. 238.
      185. 130. 253. 15. 176. 44. 139. 12. 45. 227. 34. 116. 204. 158.
      159. 55. 163. 46. 61. 151. 190. 155. 98. 84. 221. 115. 9. 91. 167.
      119. 108. 24. 49. 220. 155. 98. 205. 231. 118. 0. 136. 113. 163.
      57. 41. 70. 81. 71. 116. 27. 239. 60. 125. 162. 123. 194. 251. 32.
